// #### Generated By: http://www.cufonfonts.com ####
/*!
 * The following copyright notice may not be removed under any circumstances.
 * 
 * Copyright:
 * Criado por Mundo da Lua
 * 
 * Trademark:
 * Times Sans Serif is a trademark of .
 * 
 * Description:
 * Criado por Mundo da Lua
 * 
 * Designer:
 * Mundo da Lua
 */
Cufon.registerFont({"w":1479,"face":{"font-family":"Times Sans Serif","font-weight":400,"font-stretch":"normal","units-per-em":"2048","panose-1":"2 2 6 3 5 4 5 2 3 4","ascent":"1638","descent":"-410","x-height":"28","bbox":"-431 -2062 2319 462.076","underline-thickness":"100","underline-position":"-173","unicode-range":"U+0020-U+20AC"},"glyphs":{" ":{"w":512},"!":{"d":"234,-1169v-22,-117,10,-210,108,-218v97,-8,121,105,108,218r-90,810r-38,0xm229,-83v0,-60,51,-110,111,-110v60,0,111,50,111,110v0,60,-51,111,-111,111v-60,0,-111,-51,-111,-111","w":682},"\"":{"d":"576,-803r-76,-413v-11,-94,14,-171,100,-171v67,0,100,36,100,107v0,166,-51,326,-76,477r-48,0xm231,-1387v61,0,105,47,102,108v-6,112,-58,348,-80,476r-43,0r-55,-296v-15,-79,-22,-134,-22,-166v0,-81,33,-122,98,-122","w":836},"#":{"d":"115,28r93,-455r-171,0r0,-82r187,0r69,-343r-256,0r0,-80r275,0r91,-455r83,0r-91,455r337,0r97,-455r83,0r-95,455r170,0r0,80r-185,0r-70,343r255,0r0,82r-272,0r-93,455r-81,0r91,-455r-339,0r-95,455r-83,0xm308,-509r339,0r72,-343r-341,0","w":1024},"$":{"d":"921,-336v2,211,-186,350,-395,364r0,128r-64,0r0,-128v-208,0,-326,-121,-354,-362r44,0v15,180,118,279,310,297r0,-584v-150,-93,-250,-175,-300,-246v-35,-51,-53,-112,-53,-185v-1,-191,165,-308,353,-326r0,-92r64,0r0,92v54,3,102,4,138,19v135,56,197,185,192,368r-39,0v-17,-204,-96,-297,-291,-320r0,508v144,101,230,164,259,191v91,86,136,178,136,276xm462,-845r0,-465v-131,16,-197,80,-197,193v0,95,66,185,197,272xm526,-37v221,-20,314,-272,156,-421v-27,-26,-78,-67,-156,-120r0,541","w":1024},"%":{"d":"1392,-1387r-988,1443r-89,0r988,-1443r89,0xm72,-1018v0,-209,102,-360,292,-369v178,-9,284,179,284,369v0,194,-104,364,-286,364v-173,0,-290,-169,-290,-364xm361,-1331v-87,0,-130,104,-130,312v0,156,25,255,75,297v14,12,31,18,52,18v88,0,132,-103,132,-309v0,-212,-43,-318,-129,-318xm1349,56v-168,0,-289,-168,-289,-364v0,-153,49,-260,148,-322v45,-29,91,-43,138,-43v185,0,287,168,289,365v2,194,-104,364,-286,364xm1347,-620v-32,0,-57,20,-83,54v-56,73,-59,439,1,515v25,32,49,51,82,51v87,0,130,-102,130,-306v0,-209,-43,-314,-130,-314","w":1706},"&":{"d":"757,-1387v147,-1,269,101,269,244v0,83,-37,157,-110,223v-44,39,-117,85,-219,138v85,151,173,289,265,414v94,-103,153,-200,178,-294v25,-94,29,-164,13,-209r41,0v21,63,22,150,3,263v-19,113,-76,219,-171,317v95,112,190,168,283,168v96,0,158,-49,185,-148r37,27v-48,183,-151,275,-310,275v-111,0,-228,-65,-351,-195v-147,130,-292,195,-436,195v-190,0,-359,-116,-359,-298v0,-179,138,-342,414,-491v-54,-119,-81,-219,-81,-298v0,-196,156,-329,349,-331xm755,-1314v-96,0,-176,83,-176,179v0,60,28,156,84,288v165,-79,247,-179,247,-301v0,-91,-64,-166,-155,-166xm282,-359v0,146,108,269,255,269v79,0,172,-44,281,-132v-129,-175,-227,-332,-295,-469v-161,93,-241,203,-241,332","w":1593},"'":{"d":"178,-1387v62,0,107,46,104,107v-6,113,-58,348,-80,477r-44,0r-54,-296v-15,-84,-23,-139,-23,-166v0,-81,32,-122,97,-122","w":369},"(":{"d":"636,438v-329,-158,-555,-513,-552,-929v3,-427,240,-801,552,-931r0,42v-163,90,-271,251,-320,485v-84,401,-37,925,157,1149v43,50,96,100,163,147r0,37","w":682},")":{"d":"46,-1380r0,-42v222,109,380,282,474,519v126,318,95,680,-64,958v-102,177,-237,306,-410,383r0,-37v165,-93,274,-254,321,-486v82,-402,38,-921,-157,-1148v-43,-50,-96,-100,-164,-147","w":682},"*":{"d":"145,-1176v0,-37,38,-72,75,-72v47,0,101,35,162,105v37,43,74,76,112,99v2,-78,-62,-218,-62,-272v0,-71,28,-106,85,-106v51,0,77,35,77,104v0,52,-60,229,-59,274v37,-24,70,-52,99,-85v68,-78,124,-117,168,-117v41,0,79,34,78,76v-5,121,-230,113,-326,163v35,18,78,32,127,41v131,24,196,66,196,127v0,39,-36,74,-75,74v-45,0,-100,-38,-165,-115v-28,-33,-62,-64,-102,-92v-2,75,59,238,59,285v0,44,-34,95,-75,95v-103,0,-98,-112,-68,-202v38,-113,31,-80,43,-178v-76,42,-164,160,-213,191v-56,36,-136,3,-136,-58v0,-127,217,-114,326,-168v-98,-60,-326,-36,-326,-169","w":1024},"+":{"d":"535,-141r0,-499r-498,0r0,-82r498,0r0,-497r80,0r0,497r500,0r0,82r-500,0r0,499r-80,0","w":1155},",":{"d":"239,-200v101,0,169,104,169,210v0,155,-99,266,-298,331r0,-44v110,-34,216,-129,216,-257v0,-86,-59,-12,-109,-12v-71,0,-107,-36,-107,-109v0,-67,62,-119,129,-119","w":512},"-":{"d":"83,-535r517,0r0,151r-517,0r0,-151","w":682},"\u2010":{"d":"83,-535r517,0r0,151r-517,0r0,-151","w":682},".":{"d":"145,-83v0,-61,50,-111,111,-111v61,0,111,50,111,111v0,60,-51,111,-111,111v-60,0,-111,-51,-111,-111","w":512},"\/":{"d":"574,-1422r-491,1450r-80,0r491,-1450r80,0","w":569},"0":{"d":"74,-670v0,-311,84,-529,256,-649v171,-120,334,-65,466,94v160,193,196,594,105,885v-42,132,-105,229,-191,289v-211,148,-400,71,-527,-154v-73,-129,-109,-284,-109,-465xm296,-996v-40,268,-37,607,43,808v39,99,95,149,170,149v96,0,162,-71,200,-211v52,-191,67,-665,-2,-872v-43,-130,-105,-196,-192,-196v-115,0,-187,107,-219,322","w":1024},"1":{"d":"240,-1223r330,-161r33,0r-1,1384r-164,0r0,-971v0,-97,-2,-161,-10,-190v-23,-86,-94,-69,-173,-31","w":1024,"k":{"1":76}},"2":{"d":"470,-1384v203,-3,386,156,386,356v0,68,-16,137,-48,206v-50,109,-130,223,-240,343v-167,182,-270,291,-311,328r642,0r-55,151r-800,0r0,-37v184,-168,318,-302,401,-402v160,-191,240,-357,240,-497v0,-158,-113,-295,-268,-295v-147,0,-246,77,-297,230r-37,0v26,-219,157,-380,387,-383","w":1024},"3":{"d":"621,-1018v0,-131,-94,-230,-225,-230v-103,0,-190,55,-259,166r-33,-16v81,-191,203,-286,367,-286v172,0,316,119,316,275v0,99,-62,201,-186,306v169,66,253,184,253,354v0,254,-226,481,-458,471v-134,-5,-232,-69,-294,-190r57,-20v80,113,151,156,313,138v113,-13,234,-144,234,-279v0,-88,-45,-195,-92,-239v-85,-76,-174,-110,-303,-105r0,-30v163,-28,310,-128,310,-315","w":1024},"4":{"d":"953,-500r0,142r-182,0r0,358r-165,0r0,-358r-574,0r0,-128r629,-898r110,0r0,884r182,0xm606,-500r0,-673r-476,673r476,0","w":1024},"5":{"d":"898,-1351r-74,171r-390,0r-84,181v293,54,533,205,533,542v0,239,-156,418,-369,462v-184,38,-305,-33,-377,-183r53,-18v60,108,183,174,345,128v139,-40,231,-155,207,-340v-37,-288,-224,-401,-554,-416r246,-527r464,0","w":1024},"6":{"d":"945,-456v0,243,-189,480,-431,480v-93,0,-171,-31,-236,-92v-127,-119,-190,-274,-190,-464v0,-249,92,-463,282,-637v173,-158,320,-224,548,-215r0,37v-338,37,-522,276,-605,590v96,-66,192,-99,289,-99v201,0,343,192,343,400xm767,-348v0,-202,-84,-424,-261,-421v-49,0,-119,28,-210,85v-12,90,-18,163,-18,218v0,188,99,434,265,434v143,0,224,-160,224,-316","w":1024},"7":{"d":"206,-1356r727,0r0,38r-452,1346r-112,0r405,-1221r-633,0","w":1024},"8":{"d":"511,24v-210,0,-387,-141,-387,-333v0,-120,90,-245,269,-374v-82,-67,-139,-122,-172,-163v-55,-69,-82,-140,-82,-215v0,-192,174,-323,373,-323v183,0,364,118,364,292v0,111,-93,224,-279,341v117,90,194,161,233,214v51,69,76,140,76,215v0,205,-183,346,-395,346xm514,-1326v-119,0,-232,82,-230,197v2,82,56,165,102,203r164,136v112,-105,177,-151,184,-312v6,-137,-82,-224,-220,-224xm527,-30v129,0,238,-84,238,-209v0,-48,-13,-91,-38,-129v-47,-71,-143,-163,-287,-277v-109,91,-163,202,-163,331v0,158,97,284,250,284","w":1024},"9":{"d":"504,-1384v265,6,438,286,432,560v-7,342,-189,597,-420,746v-127,80,-242,112,-408,106r0,-37v181,-3,334,-91,459,-265v69,-97,118,-204,145,-321v-105,67,-199,101,-284,101v-208,0,-347,-187,-347,-404v0,-248,183,-492,423,-486xm482,-1319v-147,-6,-223,156,-223,318v0,141,31,251,89,330v95,129,264,99,380,2v12,-87,18,-156,18,-208v0,-203,-72,-434,-264,-442","w":1024},":":{"d":"178,-833v0,-60,51,-111,111,-111v60,0,111,51,111,111v0,60,-51,111,-111,111v-60,0,-111,-51,-111,-111xm176,-83v0,-60,51,-112,111,-112v61,0,112,51,112,112v0,60,-52,111,-112,111v-60,0,-111,-51,-111,-111","w":569},";":{"d":"171,-835v0,-60,51,-110,111,-110v60,0,111,50,111,110v0,60,-51,111,-111,111v-60,0,-111,-51,-111,-111xm271,-200v101,0,169,104,169,210v0,155,-99,266,-298,331r0,-44v110,-34,216,-129,216,-257v0,-86,-59,-12,-109,-12v-71,0,-107,-36,-107,-109v0,-67,62,-119,129,-119","w":569},"<":{"d":"37,-706r1076,-466r0,87r-926,402r926,406r0,90r-1076,-470r0,-49","w":1155},"=":{"d":"37,-883r1079,0r0,82r-1079,0r0,-82xm37,-557r1079,0r0,82r-1079,0r0,-82","w":1155},">":{"d":"1113,-653r-1076,466r0,-86r927,-402r-927,-406r0,-91r1076,470r0,49","w":1155},"?":{"d":"452,-1387v217,0,375,123,375,315v0,103,-52,213,-156,331v-83,94,-134,158,-154,191v-37,62,-58,139,-63,230r-41,0v15,-207,46,-271,133,-438v63,-122,96,-220,96,-296v0,-150,-90,-277,-233,-277v-87,0,-190,50,-187,130v-7,37,60,141,60,173v0,45,-34,85,-79,85v-70,0,-111,-81,-111,-157v0,-174,177,-287,360,-287xm329,-84v0,-61,50,-112,111,-112v61,0,112,51,112,112v0,60,-52,111,-112,111v-60,0,-111,-51,-111,-111","w":909},"@":{"d":"676,-30v-110,0,-183,-117,-181,-233v3,-242,184,-507,345,-618v78,-54,145,-83,206,-83v93,0,151,46,172,138r33,-110r157,-22r-117,399v-62,211,-93,338,-93,380v0,51,25,76,75,76v155,-2,294,-176,351,-310v47,-110,73,-223,73,-342v0,-378,-267,-616,-648,-616v-356,0,-614,213,-742,475v-76,154,-116,313,-116,478v0,482,310,799,783,799v404,0,675,-241,804,-553r58,0v-104,344,-443,614,-867,614v-354,0,-626,-188,-759,-432v-154,-282,-142,-662,9,-943v146,-272,447,-489,824,-489v433,0,707,270,714,685v4,251,-132,527,-289,624v-85,53,-172,82,-263,82v-102,0,-153,-46,-153,-137v0,-37,6,-86,18,-147v-157,190,-289,285,-394,285xm1182,-773v0,-79,-50,-145,-125,-144v-50,0,-99,28,-152,79v-105,102,-241,356,-252,545v-4,70,48,142,115,142v124,0,314,-225,358,-363v34,-108,56,-193,56,-259","w":1886},"A":{"d":"716,-1387r35,0r623,1387r-253,0r-43,-116r-141,-338r-525,0r-196,454r-101,0xm909,-528r-230,-548r-236,548r466,0","k":{"\u00d5":227,"\u00ca":113,"y":188,"w":188,"v":152,"Y":188,"W":164,"V":264,"T":227}},"B":{"d":"946,-692v183,34,308,140,308,321v0,155,-115,283,-239,328v-170,62,-536,37,-787,43r2,-1356v212,4,486,-14,653,24v168,38,308,152,308,338v0,149,-82,249,-245,302xm982,-1002v11,-249,-312,-333,-560,-265r0,521v49,9,112,14,189,14v235,-2,362,-73,371,-270xm1022,-354v0,-205,-187,-309,-423,-309v-85,0,-144,3,-177,9r0,556v77,18,154,27,229,27v200,0,371,-97,371,-283","w":1366},"C":{"d":"734,1v-384,0,-662,-298,-660,-688v1,-292,146,-523,342,-637v177,-104,437,-131,614,-24v91,56,170,144,238,265r-31,20v-81,-112,-155,-187,-222,-224v-69,-39,-148,-58,-235,-58v-197,0,-336,96,-415,287v-42,100,-63,224,-63,373v0,255,79,430,237,526v79,48,169,72,270,72v240,0,329,-111,455,-281r31,20v-131,233,-318,349,-561,349","w":1366},"D":{"d":"1401,-685v0,430,-294,696,-760,685r-411,0r0,-1356v254,2,595,-9,764,49v238,81,407,311,407,622xm1173,-675v0,-347,-208,-610,-546,-605v-60,0,-128,10,-205,29r0,1153v85,19,156,28,213,28v329,5,538,-266,538,-605"},"E":{"d":"428,-226v-2,125,3,152,112,152r547,0r0,74r-853,0r1,-1356r852,0r0,74r-659,0r0,536r550,0r0,73r-550,0r0,447","w":1251},"F":{"d":"234,0r1,-1356r852,0r0,74r-659,0r0,536r550,0r0,73r-550,0r0,673r-194,0","w":1251,"k":{"A":152,".":164,",":164}},"G":{"d":"79,-687v-2,390,277,688,660,688v108,0,227,-13,339,-76r223,-126r-1,-539r-375,0r0,118v87,0,142,21,163,64v15,12,14,13,15,54r0,312v-125,70,-222,105,-289,105v-343,0,-508,-243,-507,-598v0,-296,78,-493,234,-592v73,-45,154,-68,244,-68v244,0,321,101,457,282r31,-20v-68,-121,-147,-209,-238,-265v-177,-108,-442,-79,-617,26v-193,116,-338,344,-339,635"},"H":{"d":"1051,-727r-630,0r-1,-629r-192,0r1,1356r192,0r0,-653r630,0r0,653r191,0r-1,-1356r-190,0r0,629"},"I":{"d":"437,0r-192,0r0,-1356r192,0r0,1356","w":682},"J":{"d":"591,-453v1,200,-17,330,-51,389v-34,59,-111,89,-232,90v-121,1,-209,-48,-266,-148r70,-37v56,73,118,109,186,107v68,-2,101,-49,101,-138r0,-1166r192,1r0,902","w":797},"K":{"d":"m1087,-1355r-667,654r-1,-654r-192,0r-1,1355r194,0r0,-677r831,677r228,0r-867,-752r618,-603r-143,0xm1087,-1355r-667,654"},"L":{"d":"428,-241v3,113,5,155,105,155r586,0r-28,86r-855,0r2,-1354r191,-2","w":1251,"k":{"\u00d5":188,"\u00ca":76,"y":113,"Y":205,"W":152,"V":188,"T":188}},"M":{"d":"226,-1355r192,-1r492,1061r484,-1061r192,0r0,1356r-192,0r0,-1141r-523,1141r-33,0r-524,-1141r0,1141r-88,0r0,-1355","w":1821},"N":{"d":"241,-1356r100,0r829,1017r1,-1017r87,0r0,1378r-36,0r-894,-1092r0,1070r-88,0"},"O":{"d":"72,-683v0,-385,294,-704,677,-704v364,0,651,330,651,701v0,386,-288,717,-667,717v-387,0,-661,-320,-661,-714xm731,-40v309,0,440,-278,440,-619v0,-182,-28,-328,-85,-438v-74,-145,-193,-217,-356,-217v-121,0,-219,45,-292,135v-91,112,-137,276,-137,492v0,222,47,392,142,511v72,91,168,136,288,136"},"P":{"d":"1067,-981v3,238,-174,377,-419,374v-65,0,-141,-9,-228,-28r0,635r-191,0r-1,-1345v201,-4,432,-32,590,26v134,49,248,169,249,338xm839,-961v0,-235,-178,-365,-419,-295r0,564v71,13,125,20,164,20v149,4,255,-136,255,-289","w":1139,"k":{"\u00ca":76,"A":188,".":227,",":227}},"Q":{"d":"1401,-677v0,345,-218,615,-499,692v127,220,291,338,490,354r0,32v-304,0,-654,-201,-835,-386v-302,-108,-480,-339,-485,-696v-5,-385,294,-706,674,-706v371,0,655,334,655,710xm734,-37v304,1,438,-278,438,-615v0,-302,-75,-502,-225,-598v-63,-40,-134,-60,-213,-60v-157,0,-272,69,-346,208v-58,109,-87,249,-87,421v0,220,47,389,142,507v73,91,170,137,291,137"},"R":{"d":"1022,0r-459,-634v-34,1,-62,2,-83,2v-18,0,-38,-1,-59,-2r0,634r-191,0r0,-1346v202,-4,463,-28,618,21v130,41,245,158,245,318v0,182,-111,298,-334,347r478,660r-215,0xm868,-994v1,-170,-120,-289,-290,-286v-39,0,-91,6,-157,19r0,564v245,16,445,-78,447,-297","w":1366,"k":{"y":82,"Y":113,"W":113,"V":164,"T":123}},"S":{"d":"128,-1030v0,-205,188,-363,397,-357v212,6,305,78,366,206v31,64,44,133,48,203r-60,0v-26,-143,-73,-235,-143,-276v-123,-73,-267,-79,-373,3v-84,64,-104,181,-33,265v42,50,140,117,295,200v107,57,176,96,206,117v118,83,194,160,198,323v6,253,-248,419,-534,370v-127,-22,-209,-70,-283,-180v-47,-70,-72,-163,-72,-283r60,0v0,199,60,274,183,344v59,34,126,48,198,48v141,0,270,-85,270,-222v0,-73,-39,-137,-113,-196v-80,-65,-380,-217,-460,-283v-98,-81,-150,-173,-150,-282","w":1139},"T":{"d":"723,-1271r0,1271r-192,0r0,-1267r-453,1r0,-90r1107,0r0,87","w":1251,"k":{"\u00ca":37,"y":143,"w":143,"u":72,"s":143,"r":72,"o":143,"i":72,"e":143,"c":143,"a":143,"O":37,"A":164,";":113,":":102,".":152,"-":188,",":152}},"U":{"d":"1262,-558v1,278,-42,397,-199,509v-78,56,-187,81,-323,81v-264,0,-431,-95,-500,-284v-21,-59,-32,-170,-32,-334r0,-771r192,1r0,831v0,159,22,273,67,340v58,87,153,131,285,131v171,0,333,-85,382,-207v24,-60,38,-162,38,-306r0,-787r90,0r0,796"},"V":{"d":"778,31r-37,0r-603,-1387r204,0r471,1079r439,-1080r100,0","k":{"\u00ca":37,"y":227,"u":123,"r":123,"o":264,"i":123,"e":227,"a":227,"A":264,";":152,":":152,".":264,"-":188,",":264}},"W":{"d":"1044,-1357r316,1042r358,-1042r91,1r-482,1387r-40,0r-309,-867r-307,867r-36,0r-499,-1387r206,0r351,1042r316,-1042","w":1933,"k":{"\u00ca":37,"y":123,"u":82,"r":82,"o":164,"i":82,"e":164,"a":164,"A":227,";":76,":":76,".":188,"-":113,",":188}},"X":{"d":"1100,0r-387,-596r-463,596r-112,0r531,-667r-471,-689r237,1r351,532r417,-532r110,0r-477,604r500,751r-236,0"},"Y":{"d":"828,-575r0,575r-192,0r0,-556r-523,-799r225,-1r449,692r434,-688r104,0","k":{"\u00ca":76,"v":205,"u":227,"q":227,"p":188,"o":205,"i":113,"e":205,"a":205,"A":227,";":188,":":188,".":264,"-":227,",":264}},"Z":{"d":"1130,0r-1104,0r0,-37r870,-1238r-727,0r6,-81r1003,0r-891,1274r860,0","w":1251},"[":{"d":"608,406r-440,0r0,-1793r440,0r0,79r-290,0r0,1636r290,0r0,78","w":682},"\\":{"d":"83,-1422r490,1450r-80,0r-490,-1450r80,0","w":569},"]":{"d":"75,-1387r440,0r0,1794r-440,0r0,-79r290,0r0,-1636r-290,0r0,-79","w":682},"^":{"d":"498,-1384r425,717r-92,0r-350,-586r-350,586r-94,0r431,-717r30,0","w":961},"_":{"d":"1042,442r-1059,0r0,-84r1059,0r0,84","w":1024},"`":{"d":"118,-1390r223,0r106,345r-35,0","w":682},"a":{"d":"146,-703v2,-201,104,-240,297,-240v153,0,253,44,287,138v35,97,15,344,18,487r6,335r-167,0r-4,-149v-95,73,-154,115,-177,126v-36,17,-74,25,-115,25v-131,2,-218,-104,-218,-236v0,-95,58,-176,173,-244v67,-40,180,-89,337,-146v7,-155,-28,-268,-145,-284v-51,-6,-99,1,-146,21v-47,20,-71,76,-72,167r-74,0xm241,-264v0,84,60,167,142,167v51,0,117,-33,200,-100r0,-349v-99,39,-164,68,-195,85v-98,55,-147,120,-147,197","w":909},"b":{"d":"873,-493v0,279,-211,519,-472,521v-106,0,-216,-39,-331,-116r2,-1334r163,0r0,664v89,-123,184,-185,287,-185v217,0,351,219,351,450xm443,-801v-97,2,-139,41,-208,107r0,548v69,67,141,101,217,101v324,0,339,-764,-9,-756","w":946},"c":{"d":"530,-128v151,-7,225,-92,283,-234r29,14v-36,196,-175,373,-384,376v-237,4,-388,-235,-388,-485v0,-262,182,-493,437,-486v160,5,263,79,309,220r-69,38v-56,-133,-147,-196,-273,-191v-161,7,-242,159,-242,333v0,203,111,423,298,415","w":909},"d":{"d":"68,-420v0,-261,191,-524,443,-524v81,0,147,26,200,77r0,-555r165,0r0,1450r-165,0r0,-131v-83,87,-173,131,-269,131v-220,0,-374,-219,-374,-448xm499,-882v-359,0,-315,800,36,800v61,0,119,-30,176,-91r0,-472v-9,-135,-84,-237,-212,-237","w":976},"e":{"d":"76,-446v0,-279,156,-498,423,-498v212,0,355,159,352,373r-633,0v-6,224,125,436,334,436v124,0,213,-73,268,-219r31,20v-24,184,-178,362,-375,362v-243,0,-400,-220,-400,-474xm642,-629v-2,-159,-74,-240,-199,-244v-129,-4,-215,117,-225,244r424,0","w":909},"f":{"d":"422,-844r0,844r-165,3r0,-847r-178,0r0,-72r178,0v-9,-213,45,-360,179,-446v60,-39,126,-57,197,-54v110,3,189,62,238,175r-73,73v-52,-125,-128,-180,-228,-180v-71,0,-113,35,-134,100v-9,26,-15,214,-14,332r236,0r0,72r-236,0","w":682,"k":{"\u00d5":-113,"f":37}},"g":{"d":"149,-119v18,-103,65,-129,160,-215v-100,-47,-172,-143,-174,-277v-2,-186,167,-332,365,-332v87,0,163,21,227,64r194,0v58,0,66,-3,66,43v0,50,-7,47,-66,47r-119,0v37,48,56,109,56,184v2,229,-252,367,-500,290v-43,38,-68,63,-75,115v5,36,33,50,81,56v70,9,382,11,407,21v113,14,203,89,204,207v0,75,-35,146,-106,212v-104,97,-240,146,-407,146v-129,0,-238,-27,-326,-87v-66,-45,-97,-85,-64,-152v43,-86,66,-102,172,-211v-53,-35,-88,-49,-95,-111xm683,-580v-2,-162,-55,-315,-200,-315v-116,0,-174,100,-174,240v0,163,56,311,200,311v119,0,176,-95,174,-236xm299,0v-65,69,-150,186,-37,260v113,74,448,84,554,-2v55,-45,86,-87,86,-135v0,-35,-17,-60,-51,-74v-99,-39,-456,-25,-552,-49","w":1024},"h":{"d":"333,-1422r0,670v56,-61,102,-104,135,-129v146,-111,341,-72,388,116v11,43,19,121,19,234r1,531r-167,0r0,-531v0,-74,-1,-122,-4,-143v-14,-94,-49,-148,-143,-148v-71,0,-147,44,-229,131r-1,691r-165,0r0,-1421","w":1024},"i":{"d":"195,-1321v0,-56,46,-101,102,-101v55,0,101,47,101,101v0,54,-46,102,-101,102v-54,0,-102,-48,-102,-102xm380,-943r1,943r-167,3r0,-950","w":569},"j":{"d":"194,-1320v0,-56,46,-103,102,-103v56,0,103,47,103,103v0,56,-47,102,-103,102v-54,0,-102,-48,-102,-102xm382,-943r0,922v2,341,-105,491,-322,467v-67,-8,-140,-37,-217,-105r72,-83v88,75,157,108,209,99v52,-9,83,-31,86,-66v19,-235,7,-588,7,-849r0,-381","w":569},"k":{"d":"335,-1422r0,912r428,-405r112,0r-377,355r451,563r-193,0r-421,-513r1,510r-167,0r-1,-1419","w":1024},"l":{"d":"379,-1422r0,1422r-166,0r-1,-1421","w":569},"m":{"d":"571,-826v-97,0,-192,77,-235,128r2,698r-165,0r0,-943r163,0r0,195v66,-66,105,-104,118,-115v148,-134,397,-101,431,115v96,-109,165,-195,320,-195v162,0,241,129,241,342r1,601r-167,0r0,-601v2,-147,-31,-222,-152,-222v-69,0,-148,42,-236,125r-2,698r-163,0r0,-601v3,-142,-43,-225,-156,-225","w":1593},"n":{"d":"638,-943v161,0,237,134,237,345r1,598r-166,0r0,-582v0,-159,-47,-238,-142,-238v-79,0,-158,43,-237,130r-1,690r-164,0r1,-943r164,0r0,194v107,-129,210,-194,307,-194","w":1024},"o":{"d":"69,-449v6,-268,173,-487,443,-494v250,-6,448,218,441,468v-8,276,-169,496,-452,503v-248,6,-438,-230,-432,-477xm481,-878v-154,-2,-226,158,-226,345v0,113,20,216,61,309v53,121,129,181,228,181v149,0,223,-118,223,-355v0,-162,-35,-290,-105,-384v-48,-64,-108,-96,-181,-96","w":1024},"p":{"d":"536,28v-105,-1,-156,-24,-218,-81r0,486r-166,0r0,-1372r166,0r0,214v85,-145,183,-218,293,-218v220,0,343,220,343,452v0,267,-156,521,-418,519xm532,-798v-113,0,-124,41,-214,132r0,342v-1,155,7,193,86,254v36,27,80,38,129,38v291,2,295,-518,151,-688v-43,-51,-93,-78,-152,-78","w":1024},"q":{"d":"68,-417v0,-283,196,-526,471,-526v77,0,140,21,191,64v39,-19,76,-40,111,-64r34,0r-1,1385r-164,0r0,-601v-105,125,-205,187,-300,187v-207,0,-342,-225,-342,-445xm236,-490v0,199,95,377,278,377v74,0,139,-36,196,-109r0,-430v3,-137,-73,-219,-202,-221v-183,-3,-272,181,-272,383","w":1024},"r":{"d":"332,-935r0,198v77,-132,153,-198,228,-196v61,2,106,51,136,145r-73,56v-33,-60,-61,-101,-137,-86v-26,5,-46,17,-61,30v-31,28,-62,73,-93,135r-2,649r-162,0r-1,-929","w":682,"k":{"\u00d5":-76,"g":37,".":113,"-":41,",":82}},"s":{"d":"125,-591v-89,-177,65,-359,249,-352v190,7,273,107,286,283r-42,0v-22,-160,-101,-226,-244,-230v-114,-3,-221,128,-135,225v110,123,378,179,457,334v95,188,-72,367,-269,367v-134,0,-214,-44,-270,-129v-32,-48,-50,-113,-50,-196r43,0v-3,139,44,190,126,238v118,69,331,29,322,-120v-9,-157,-219,-211,-330,-286v-60,-40,-115,-78,-143,-134","w":797},"t":{"d":"341,15v-125,0,-176,-90,-176,-245r0,-616r-145,0r0,-70r144,0r0,-301r166,0r0,301r214,0r0,70r-214,0r0,594v0,101,30,151,91,151v52,0,89,-27,112,-81r39,0v-47,131,-124,197,-231,197","w":569},"u":{"d":"391,28v-176,-1,-234,-146,-234,-357r0,-587r166,0r0,613v0,139,51,208,152,208v66,0,142,-43,227,-130r0,-691r165,0r-1,944r-164,0r0,-194v-60,65,-106,109,-137,132v-56,41,-114,62,-174,62","w":1024},"v":{"d":"106,-916r187,0r281,696r274,-696r81,-1r-384,945r-41,0","w":1024,"k":{".":133,",":133}},"w":{"d":"101,-916r164,0r246,705r265,-705r33,0r245,681r260,-681r71,0r-359,944r-41,0r-229,-585r-267,585r-37,0","k":{".":133,",":133}},"x":{"d":"111,-916r196,0r210,316r220,-316r86,1r-259,382r376,533r-211,0r-253,-403r-273,403r-87,0r313,-462","w":1024},"y":{"d":"89,-916r183,0r312,675r275,-675r93,2r-555,1355r-94,0r201,-477","w":1024,"k":{".":133,",":133}},"z":{"d":"856,-67r0,67r-815,0r0,-36r608,-810r-541,1r0,-71r768,0r0,37r-614,812r594,0","w":909},"{":{"d":"660,-145v2,64,-45,257,-45,320v0,117,75,195,226,232r0,35v-192,-21,-376,-182,-376,-385v0,-63,46,-254,46,-316v0,-116,-116,-199,-228,-211r0,-41v114,-12,228,-95,228,-211v0,-62,-46,-253,-46,-316v0,-202,185,-365,376,-384r0,35v-151,36,-226,113,-226,231v0,64,47,256,45,320v-5,171,-147,294,-295,343v145,51,290,177,295,348","w":983},"|":{"d":"244,-1422r0,1864r-83,0r0,-1864r83,0","w":410},"}":{"d":"357,-836v-2,-64,46,-256,46,-320v0,-118,-75,-195,-226,-231r0,-35v193,20,376,181,376,385v0,63,-46,253,-46,315v0,116,116,199,228,211r0,41v-113,12,-228,95,-228,211v0,62,46,253,46,316v0,203,-186,364,-376,385r0,-35v151,-37,226,-115,226,-232v0,-63,-48,-256,-46,-319v5,-173,147,-295,296,-344v-147,-51,-291,-177,-296,-348","w":983},"~":{"d":"20,-400v3,-180,133,-327,324,-264v10,-3,448,189,512,175v111,0,173,-62,186,-186r45,0v-3,152,-96,280,-245,277v-171,-3,-440,-185,-592,-185v-99,0,-161,61,-186,183r-44,0","w":1108},"\u00a1":{"d":"232,-863v0,-60,50,-111,110,-111v61,0,111,50,111,111v0,60,-51,110,-111,110v-60,0,-110,-50,-110,-110xm449,223v20,111,-11,214,-108,219v-97,5,-121,-102,-108,-219r89,-810r38,0","w":682},"\u00a2":{"d":"422,-191v61,39,83,61,163,61v87,0,154,-29,202,-86v19,-23,47,-71,83,-146r30,13v-31,125,-86,222,-163,292v-97,88,-249,105,-383,46r-142,390r-70,0r155,-427v-110,-100,-165,-218,-168,-404v-6,-292,190,-522,491,-491r140,-383r72,0r-145,402v67,30,112,60,138,87v63,65,77,205,-46,200v-72,-3,-104,-39,-112,-120v-3,-21,-8,-42,-17,-65xm533,-877v-172,3,-244,165,-244,342v0,91,27,186,81,285r223,-615v-19,-8,-39,-12,-60,-12","w":1024},"\u00a3":{"d":"443,-1049v0,85,12,177,22,295r258,0r0,95r-258,0v6,165,-12,273,-61,426v199,59,182,81,326,81v110,0,180,-53,211,-160r36,9v-18,167,-121,327,-287,327v-57,0,-115,-17,-175,-52v-22,-13,-72,-49,-151,-108v-53,107,-115,160,-186,160v-73,0,-117,-57,-117,-129v0,-91,73,-158,164,-156v22,0,50,3,85,8v8,-138,-2,-188,-18,-406r-194,0r0,-95r194,0v-9,-99,-13,-166,-13,-199v-5,-241,135,-422,370,-431v127,-5,253,83,253,204v0,72,-103,117,-141,44v-5,-10,-11,-36,-15,-80v-7,-77,-43,-113,-121,-113v-121,0,-182,93,-182,280xm298,-172v-66,-49,-180,-36,-180,60v0,52,22,78,65,78v54,0,92,-46,115,-138","w":1024},"\u00a4":{"d":"524,-238v-110,0,-244,-46,-295,-103r-146,143r-56,-55r144,-145v-136,-152,-136,-407,0,-565r-144,-141r56,-57r146,142v149,-135,416,-137,565,0r143,-142r58,57r-144,141v138,172,137,395,0,565r144,145r-58,55r-143,-143v-89,69,-179,103,-270,103xm874,-679v-6,-206,-156,-357,-362,-361v-197,-5,-362,166,-362,363v0,193,168,359,361,359v193,0,369,-168,363,-361","w":1024},"\u00a5":{"d":"789,-1257v-2,-47,-51,-59,-112,-61r0,-38r346,0r0,38v-39,0,-68,8,-87,23v-29,24,-58,68,-86,132r-214,485r387,0r0,73r-419,0r-7,16r0,164r426,0r0,73r-426,0r0,108v-10,174,27,202,171,203r0,41r-515,0r0,-41v90,5,157,-18,169,-83v4,-24,4,-172,4,-228r-424,0r0,-73r424,0r0,-144r-15,-36r-409,0r0,-73r377,0r-213,-496v-39,-88,-64,-137,-164,-144r0,-38r442,0r0,38v-116,13,-139,33,-103,121r214,519r213,-504v14,-33,21,-58,21,-75","w":1024},"\u00a6":{"d":"244,-1422r0,742r-83,0r0,-742r83,0xm244,-300r0,742r-83,0r0,-742r83,0","w":410},"\u00a7":{"d":"492,361v82,0,176,-82,176,-165v0,-41,-10,-78,-31,-111v-32,-51,-90,-107,-174,-170v-126,-95,-211,-177,-256,-247v-34,-54,-51,-111,-51,-172v0,-137,74,-250,221,-339v-83,-91,-124,-178,-124,-259v0,-155,129,-282,284,-282v129,0,253,95,253,220v0,60,-26,90,-79,90v-43,1,-78,-34,-78,-77v0,-17,13,-70,13,-96v0,-63,-36,-95,-109,-95v-95,0,-174,79,-174,175v0,43,9,78,27,106v30,47,80,96,151,147v135,97,226,184,275,260v35,54,52,111,52,172v0,139,-74,253,-221,342v82,90,123,175,123,254v0,159,-125,286,-284,286v-129,0,-251,-100,-251,-225v0,-44,34,-88,78,-88v50,0,75,29,75,87v0,22,-17,88,-16,109v3,53,66,78,120,78xm409,-812v-143,84,-191,208,-114,351v43,79,231,211,319,292v102,-62,153,-135,153,-220v0,-92,-75,-196,-225,-313v-57,-45,-102,-81,-133,-110","w":1024},"\u00a8":{"d":"409,-1228v0,-58,51,-109,109,-109v58,0,108,51,108,109v0,58,-50,108,-108,108v-58,0,-109,-50,-109,-108xm57,-1228v0,-58,50,-109,108,-109v60,0,109,49,109,109v0,58,-50,108,-108,108v-58,0,-109,-50,-109,-108","w":682},"\u00a9":{"d":"69,-678v0,-409,305,-709,709,-709v410,0,710,303,710,709v0,410,-304,709,-710,709v-410,0,-709,-303,-709,-709xm1426,-678v0,-374,-278,-648,-648,-648v-373,0,-647,278,-647,648v0,375,276,648,647,648v374,0,648,-276,648,-648xm818,-1135v51,0,148,29,222,46v21,0,37,-15,49,-45r40,0r20,280r-39,0v-47,-157,-148,-236,-303,-236v-205,-1,-321,163,-321,389v0,243,103,413,331,413v130,0,234,-54,312,-162r37,19v-93,135,-220,203,-383,203v-253,0,-463,-193,-463,-444v0,-266,228,-463,498,-463","w":1556},"\u00aa":{"d":"125,-787v-65,0,-131,-58,-131,-124v0,-61,43,-118,129,-170v33,-20,106,-53,217,-99v1,-112,-15,-176,-106,-176v-63,0,-94,30,-94,88v0,58,-19,87,-58,87v-37,0,-56,-20,-56,-60v-2,-99,121,-147,234,-143v158,6,218,43,218,204r0,218v-5,98,20,104,84,57r0,48v-68,49,-118,74,-149,74v-38,0,-62,-32,-73,-95v-85,61,-156,91,-215,91xm133,-958v0,47,43,87,89,86v29,0,69,-15,118,-44r0,-226v-138,46,-207,107,-207,184","w":565},"\u00ab":{"d":"508,8r-57,0r-387,-472r387,-470r57,0r-244,470xm960,8r-58,0r-394,-472r394,-470r58,0r-243,470","w":1024},"\u00ac":{"d":"36,-878r1080,0r0,406r-79,0r0,-325r-1001,0r0,-81","w":1155},"\u00ae":{"d":"69,-678v0,-409,305,-709,709,-709v410,0,710,303,710,709v0,410,-304,709,-710,709v-410,0,-709,-303,-709,-709xm1426,-678v0,-374,-278,-648,-648,-648v-373,0,-647,278,-647,648v0,375,276,648,647,648v374,0,648,-276,648,-648xm374,-282v94,-9,104,-24,104,-138r0,-523v0,-51,-1,-80,-3,-87v-9,-32,-38,-48,-89,-48r0,-36r386,0v158,-2,297,77,297,224v0,109,-74,183,-222,222r209,298v43,52,50,80,121,88r0,33r-184,0r-294,-405r-76,0r0,309v7,42,47,63,118,63r0,33r-367,0r0,-33xm908,-879v8,-138,-143,-231,-285,-175r0,357v175,-4,277,-40,285,-182","w":1556},"\u00af":{"d":"1042,-1462r-1059,0r0,-84r1059,0r0,84","w":1024},"\u00b0":{"d":"98,-1078v0,-168,139,-308,307,-308v168,0,308,140,308,308v0,166,-142,307,-308,307v-166,0,-307,-141,-307,-307xm628,-1079v0,-122,-101,-223,-223,-223v-122,0,-223,101,-223,223v0,121,102,223,223,223v121,0,223,-102,223,-223","w":819},"\u00b1":{"d":"8,-141r0,-81r498,0r0,-418r-498,0r0,-82r498,0r0,-497r80,0r0,497r500,0r0,82r-500,0r0,418r501,0r0,81r-1079,0","w":1124},"\u00b2":{"d":"366,-760v99,1,125,-5,164,-56r45,0r-61,152r-494,0r0,-29v164,-128,273,-232,328,-313v33,-49,50,-97,50,-143v0,-81,-65,-144,-146,-144v-81,0,-136,39,-165,118r-45,0v20,-139,101,-209,242,-209v116,0,239,77,239,188v0,44,-16,91,-48,141v-50,78,-148,176,-295,295r186,0","w":614},"\u00b3":{"d":"361,-1190v0,-69,-53,-112,-121,-111v-57,0,-106,29,-147,88r-38,-16v50,-103,127,-155,230,-155v95,0,198,57,198,147v0,45,-35,97,-105,155v97,35,145,95,145,182v0,162,-157,251,-332,251v-98,0,-147,-21,-147,-63v0,-30,20,-45,59,-45v33,0,136,48,172,48v71,0,136,-61,136,-132v0,-71,-32,-119,-95,-143v-53,-20,-83,-25,-137,-23r0,-28v91,2,182,-67,182,-155","w":614},"\u00b4":{"d":"565,-1390r-295,345r-34,0r105,-345r224,0","w":682},"\u00b5":{"d":"315,332v3,57,-40,110,-94,110v-58,0,-87,-36,-87,-109v0,-35,46,-222,51,-269v8,-73,12,-132,12,-179r-1,-801r164,0r0,533v0,96,6,162,18,198v20,60,61,90,124,90v79,0,157,-45,236,-134r0,-687r165,0r0,654v0,68,3,112,8,131v9,34,29,51,60,51v41,0,68,-41,81,-124r42,0v-11,155,-77,232,-198,232v-94,0,-147,-63,-158,-190v-108,127,-213,190,-314,190v-84,0,-111,-25,-155,-85v-14,109,40,257,46,389","w":1180},"\u00b6":{"d":"798,-1301r0,1743r-72,0r0,-1743r-187,0r0,1743r-73,0r0,-1043v-223,-9,-349,-49,-430,-182v-63,-102,-68,-278,-7,-378v79,-130,215,-195,407,-195r495,0r0,55r-133,0","w":928},"\u00b7":{"d":"495,-703v0,-57,48,-105,105,-105v57,0,105,48,105,105v0,56,-49,105,-105,105v-56,0,-105,-49,-105,-105","w":682},"\u00b8":{"d":"356,234v0,-50,-49,-84,-106,-72r111,-178r60,0r-50,79v83,21,125,70,125,146v0,106,-105,184,-215,181v-25,0,-56,-2,-94,-7r0,-43v90,20,169,-28,169,-106","w":682},"\u00b9":{"d":"254,-1166v-6,-84,8,-123,-35,-123v-13,0,-36,7,-67,20r-16,-28r205,-87r35,0r0,592v-1,98,2,88,101,96r0,32r-325,0r0,-32v102,-9,102,6,102,-96r0,-374","w":614},"\u00ba":{"d":"29,-1075v0,-176,118,-309,295,-309v162,0,287,131,287,293v0,160,-139,304,-300,304v-159,0,-282,-129,-282,-288xm296,-1341v-84,0,-126,63,-126,188v0,105,23,191,69,258v26,38,60,57,102,57v88,0,132,-62,132,-185v0,-105,-24,-190,-71,-256v-29,-41,-65,-62,-106,-62","w":635},"\u00bb":{"d":"516,-934r57,0r387,472r-387,470r-57,0r244,-470xm64,-934r58,0r394,472r-394,470r-58,0r243,-470","w":1024},"\u00bc":{"d":"252,-1166v-6,-84,8,-123,-35,-123v-13,0,-36,7,-67,20r-16,-28r205,-87r35,0r0,592v-1,98,2,88,101,96r0,32r-325,0r0,-32v102,-9,102,6,102,-96r0,-374xm1292,-1384r-934,1438r-90,0r935,-1438r89,0xm1501,-224r0,81r-108,0r0,183r-117,0r0,-183r-343,0r0,-73r376,-465r84,0r0,457r108,0xm1276,-224r0,-316r-260,316r260,0","w":1536},"\u00bd":{"d":"252,-1166v-6,-84,8,-123,-35,-123v-13,0,-36,7,-67,20r-16,-28r205,-87r35,0r0,592v-1,98,2,88,101,96r0,32r-325,0r0,-32v102,-9,102,6,102,-96r0,-374xm1268,-1384r-935,1438r-89,0r935,-1438r89,0xm1286,-57v100,1,125,-5,163,-56r45,0r-61,153r-494,0r0,-30v164,-128,273,-232,328,-313v33,-49,50,-97,50,-143v0,-81,-65,-144,-146,-144v-81,0,-136,39,-165,118r-45,0v20,-139,101,-209,242,-209v116,0,239,79,239,188v0,45,-16,92,-48,142v-49,77,-148,175,-295,294r187,0","w":1536},"\u00be":{"d":"1277,-1384r-931,1438r-90,0r935,-1438r86,0xm359,-1190v0,-69,-53,-112,-121,-111v-57,0,-106,29,-147,88r-38,-16v50,-103,127,-155,230,-155v95,0,198,57,198,147v0,45,-35,97,-105,155v97,35,145,95,145,182v0,162,-157,251,-332,251v-98,0,-147,-21,-147,-63v0,-30,20,-45,59,-45v33,0,136,48,172,48v71,0,136,-61,136,-132v0,-116,-104,-171,-232,-166r0,-28v91,2,182,-67,182,-155xm1501,-224r0,81r-108,0r0,183r-116,0r0,-183r-344,0r0,-73r376,-465r84,0r0,457r108,0xm1277,-224r0,-316r-260,316r260,0","w":1536},"\u00bf":{"d":"341,-864v0,-60,51,-111,111,-111v60,0,111,51,111,111v0,60,-51,111,-111,111v-60,0,-111,-51,-111,-111xm460,442v-199,0,-371,-126,-371,-317v0,-57,13,-106,29,-152v33,-94,253,-326,287,-413v18,-46,32,-107,36,-186r39,0v-14,217,-39,254,-126,443v-54,117,-83,212,-83,289v-2,158,84,276,236,276v89,0,187,-50,187,-131v0,-35,-62,-135,-62,-170v0,-44,37,-81,81,-81v67,0,111,80,111,152v0,177,-177,290,-364,290","w":909},"\u00c0":{"d":"716,-1387r35,0r623,1387r-253,0r-43,-116r-141,-338r-525,0r-196,454r-101,0xm909,-528r-230,-548r-236,548r466,0xm513,-1797r223,0r106,345r-35,0"},"\u00c1":{"d":"716,-1387r35,0r623,1387r-253,0r-43,-116r-141,-338r-525,0r-196,454r-101,0xm909,-528r-230,-548r-236,548r466,0xm959,-1797r-295,345r-34,0r105,-345r224,0"},"\u00c2":{"d":"716,-1387r35,0r623,1387r-253,0r-43,-116r-141,-338r-525,0r-196,454r-101,0xm909,-528r-230,-548r-236,548r466,0xm643,-1793r184,0r190,331r-31,0r-273,-213r-229,213r-30,0"},"\u00c3":{"d":"716,-1387r35,0r623,1387r-253,0r-43,-116r-141,-338r-525,0r-196,454r-101,0xm909,-528r-230,-548r-236,548r466,0xm542,-1602v-72,0,-73,42,-93,137r-32,0v4,-205,99,-293,263,-246v17,0,208,126,250,126v48,0,80,-46,95,-139r31,0v4,151,-61,263,-190,263v-53,0,-118,-27,-196,-80v-59,-41,-102,-61,-128,-61"},"\u00c4":{"d":"716,-1387r35,0r623,1387r-253,0r-43,-116r-141,-338r-525,0r-196,454r-101,0xm909,-528r-230,-548r-236,548r466,0xm802,-1599v0,-58,51,-109,109,-109v58,0,108,51,108,109v0,58,-50,108,-108,108v-58,0,-109,-50,-109,-108xm450,-1599v0,-58,50,-109,108,-109v60,0,109,49,109,109v0,58,-50,108,-108,108v-58,0,-109,-50,-109,-108"},"\u00c5":{"d":"716,-1387r35,0r623,1387r-253,0r-43,-116r-141,-338r-525,0r-196,454r-101,0xm909,-528r-230,-548r-236,548r466,0xm540,-1510v0,-104,87,-191,191,-191v104,0,192,87,192,191v0,105,-87,192,-192,192v-104,0,-191,-88,-191,-192xm853,-1510v0,-66,-56,-122,-122,-122v-66,0,-122,56,-122,122v0,66,56,122,122,122v66,0,122,-56,122,-122"},"\u00c6":{"d":"638,-37v151,2,197,-24,197,-202r0,-286r-396,0v-53,107,-194,304,-194,406v0,47,52,75,157,82r0,37r-426,0r0,-37v53,-1,101,-29,144,-84v25,-32,57,-83,94,-153r412,-771v51,-96,77,-160,77,-193v0,-48,-58,-75,-173,-81r0,-37r1111,0r15,298r-34,0v-15,-118,-56,-196,-128,-214v-107,-26,-330,-6,-467,-10r0,536r257,0v156,-2,204,-48,217,-197r36,0r0,471r-36,0v-13,-116,-25,-149,-101,-190v-79,-21,-265,-7,-373,-11r0,525v10,60,38,75,115,74r182,0v243,10,323,-107,402,-267r38,0r-108,341r-1018,0r0,-37xm835,-1282r-357,684r357,0r0,-684","w":1821},"\u00c7":{"d":"734,1v-384,0,-662,-298,-660,-688v1,-292,146,-523,342,-637v177,-104,437,-131,614,-24v91,56,170,144,238,265r-31,20v-81,-112,-155,-187,-222,-224v-69,-39,-148,-58,-235,-58v-197,0,-336,96,-415,287v-42,100,-63,224,-63,373v0,255,79,430,237,526v79,48,169,72,270,72v240,0,329,-111,455,-281r31,20v-131,233,-318,349,-561,349xm693,234v0,-50,-49,-84,-106,-72r111,-178r60,0r-50,79v83,21,125,70,125,146v0,106,-105,184,-215,181v-25,0,-56,-2,-94,-7r0,-43v90,20,169,-28,169,-106","w":1366},"\u00c8":{"d":"428,-226v-2,125,3,152,112,152r547,0r0,74r-853,0r1,-1356r852,0r0,74r-659,0r0,536r550,0r0,73r-550,0r0,447xm406,-1797r223,0r106,345r-35,0","w":1251},"\u00c9":{"d":"428,-226v-2,125,3,152,112,152r547,0r0,74r-853,0r1,-1356r852,0r0,74r-659,0r0,536r550,0r0,73r-550,0r0,447xm853,-1797r-295,345r-34,0r105,-345r224,0","w":1251},"\u00ca":{"d":"428,-226v-2,125,3,152,112,152r547,0r0,74r-853,0r1,-1356r852,0r0,74r-659,0r0,536r550,0r0,73r-550,0r0,447xm537,-1793r184,0r190,331r-31,0r-273,-213r-229,213r-30,0","w":1251,"k":{"\u0443":76,"\u043e":76,"\u043d":37,"\u0435":113,"\u042f":113,"\u042d":113,"\u0425":113,"Y":76,"W":37,"V":37,"T":37,"A":113}},"\u00cb":{"d":"428,-226v-2,125,3,152,112,152r547,0r0,74r-853,0r1,-1356r852,0r0,74r-659,0r0,536r550,0r0,73r-550,0r0,447xm696,-1599v0,-58,51,-109,109,-109v58,0,108,51,108,109v0,58,-50,108,-108,108v-58,0,-109,-50,-109,-108xm344,-1599v0,-58,50,-109,108,-109v60,0,109,49,109,109v0,58,-50,108,-108,108v-58,0,-109,-50,-109,-108","w":1251},"\u00cc":{"d":"437,0r-192,0r0,-1356r192,0r0,1356xm119,-1797r223,0r106,345r-35,0","w":682},"\u00cd":{"d":"437,0r-192,0r0,-1356r192,0r0,1356xm565,-1797r-295,345r-34,0r105,-345r224,0","w":682},"\u00ce":{"d":"437,0r-192,0r0,-1356r192,0r0,1356xm249,-1793r184,0r190,331r-31,0r-273,-213r-229,213r-30,0","w":682},"\u00cf":{"d":"437,0r-192,0r0,-1356r192,0r0,1356xm409,-1599v0,-58,51,-109,109,-109v58,0,108,51,108,109v0,58,-50,108,-108,108v-58,0,-109,-50,-109,-108xm57,-1599v0,-58,50,-109,108,-109v60,0,109,49,109,109v0,58,-50,108,-108,108v-58,0,-109,-50,-109,-108","w":682},"\u00d0":{"d":"1390,-687v0,442,-306,691,-760,687r-411,0r1,-678r-160,1r0,-74r160,-1r-1,-604v253,2,598,-10,764,49v228,80,407,311,407,620xm1163,-677v0,-346,-209,-610,-545,-605v-60,0,-128,10,-205,29r0,501r291,1r0,74r-291,-1r0,578v85,19,156,28,213,28v329,5,537,-265,537,-605","w":1469},"\u00d1":{"d":"241,-1356r100,0r829,1017r1,-1017r87,0r0,1378r-36,0r-894,-1092r0,1070r-88,0xm541,-1602v-72,0,-73,42,-93,137r-32,0v4,-205,99,-293,263,-246v17,0,208,126,250,126v48,0,80,-46,95,-139r31,0v4,151,-61,263,-190,263v-53,0,-118,-27,-196,-80v-59,-41,-102,-61,-128,-61"},"\u00d2":{"d":"72,-683v0,-385,294,-704,677,-704v364,0,651,330,651,701v0,386,-288,717,-667,717v-387,0,-661,-320,-661,-714xm731,-40v309,0,440,-278,440,-619v0,-182,-28,-328,-85,-438v-74,-145,-193,-217,-356,-217v-121,0,-219,45,-292,135v-91,112,-137,276,-137,492v0,222,47,392,142,511v72,91,168,136,288,136xm511,-1797r223,0r106,345r-35,0"},"\u00d3":{"d":"72,-683v0,-385,294,-704,677,-704v364,0,651,330,651,701v0,386,-288,717,-667,717v-387,0,-661,-320,-661,-714xm731,-40v309,0,440,-278,440,-619v0,-182,-28,-328,-85,-438v-74,-145,-193,-217,-356,-217v-121,0,-219,45,-292,135v-91,112,-137,276,-137,492v0,222,47,392,142,511v72,91,168,136,288,136xm957,-1797r-295,345r-34,0r105,-345r224,0"},"\u00d4":{"d":"72,-683v0,-385,294,-704,677,-704v364,0,651,330,651,701v0,386,-288,717,-667,717v-387,0,-661,-320,-661,-714xm731,-40v309,0,440,-278,440,-619v0,-182,-28,-328,-85,-438v-74,-145,-193,-217,-356,-217v-121,0,-219,45,-292,135v-91,112,-137,276,-137,492v0,222,47,392,142,511v72,91,168,136,288,136xm641,-1793r184,0r190,331r-31,0r-273,-213r-229,213r-30,0","k":{"\u00d4":152}},"\u00d5":{"d":"72,-683v0,-385,294,-704,677,-704v364,0,651,330,651,701v0,386,-288,717,-667,717v-387,0,-661,-320,-661,-714xm731,-40v309,0,440,-278,440,-619v0,-182,-28,-328,-85,-438v-74,-145,-193,-217,-356,-217v-121,0,-219,45,-292,135v-91,112,-137,276,-137,492v0,222,47,392,142,511v72,91,168,136,288,136xm539,-1602v-72,0,-73,42,-93,137r-32,0v4,-205,99,-293,263,-246v17,0,208,126,250,126v48,0,80,-46,95,-139r31,0v4,151,-61,263,-190,263v-53,0,-118,-27,-196,-80v-59,-41,-102,-61,-128,-61","k":{"\u00d5":152,"\u00ca":152,"t":37,"s":113}},"\u00d6":{"d":"72,-683v0,-385,294,-704,677,-704v364,0,651,330,651,701v0,386,-288,717,-667,717v-387,0,-661,-320,-661,-714xm731,-40v309,0,440,-278,440,-619v0,-182,-28,-328,-85,-438v-74,-145,-193,-217,-356,-217v-121,0,-219,45,-292,135v-91,112,-137,276,-137,492v0,222,47,392,142,511v72,91,168,136,288,136xm800,-1599v0,-58,51,-109,109,-109v58,0,108,51,108,109v0,58,-50,108,-108,108v-58,0,-109,-50,-109,-108xm448,-1599v0,-58,50,-109,108,-109v60,0,109,49,109,109v0,58,-50,108,-108,108v-58,0,-109,-50,-109,-108"},"\u00d7":{"d":"165,-328r353,-353r-352,-352r58,-58r352,352r352,-352r56,57r-352,352r354,354r-57,58r-354,-354r-353,353","w":1155},"\u00d8":{"d":"73,-692v0,-374,297,-695,668,-695v151,0,287,50,406,149r131,-162r58,44r-133,167v283,289,250,801,-46,1057v-239,206,-588,213,-827,20r-129,159r-59,-47r132,-164v-134,-138,-201,-314,-201,-528xm1063,-1135v-94,-160,-283,-223,-474,-159v-192,64,-287,313,-287,597v0,154,24,290,73,408xm416,-217v66,107,167,176,314,176v122,0,221,-43,298,-129v95,-107,142,-269,142,-486v0,-174,-17,-268,-69,-407"},"\u00d9":{"d":"1262,-558v1,278,-42,397,-199,509v-78,56,-187,81,-323,81v-264,0,-431,-95,-500,-284v-21,-59,-32,-170,-32,-334r0,-771r192,1r0,831v0,159,22,273,67,340v58,87,153,131,285,131v171,0,333,-85,382,-207v24,-60,38,-162,38,-306r0,-787r90,0r0,796xm562,-1797r223,0r106,345r-35,0"},"\u00da":{"d":"1262,-558v1,278,-42,397,-199,509v-78,56,-187,81,-323,81v-264,0,-431,-95,-500,-284v-21,-59,-32,-170,-32,-334r0,-771r192,1r0,831v0,159,22,273,67,340v58,87,153,131,285,131v171,0,333,-85,382,-207v24,-60,38,-162,38,-306r0,-787r90,0r0,796xm960,-1797r-295,345r-34,0r105,-345r224,0"},"\u00db":{"d":"1262,-558v1,278,-42,397,-199,509v-78,56,-187,81,-323,81v-264,0,-431,-95,-500,-284v-21,-59,-32,-170,-32,-334r0,-771r192,1r0,831v0,159,22,273,67,340v58,87,153,131,285,131v171,0,333,-85,382,-207v24,-60,38,-162,38,-306r0,-787r90,0r0,796xm691,-1793r184,0r190,331r-31,0r-273,-213r-229,213r-30,0"},"\u00dc":{"d":"1262,-558v1,278,-42,397,-199,509v-78,56,-187,81,-323,81v-264,0,-431,-95,-500,-284v-21,-59,-32,-170,-32,-334r0,-771r192,1r0,831v0,159,22,273,67,340v58,87,153,131,285,131v171,0,333,-85,382,-207v24,-60,38,-162,38,-306r0,-787r90,0r0,796xm851,-1599v0,-58,51,-109,109,-109v58,0,108,51,108,109v0,58,-50,108,-108,108v-58,0,-109,-50,-109,-108xm499,-1599v0,-58,50,-109,108,-109v60,0,109,49,109,109v0,58,-50,108,-108,108v-58,0,-109,-50,-109,-108"},"\u00dd":{"d":"828,-575r0,575r-192,0r0,-556r-523,-799r225,-1r449,692r434,-688r104,0xm996,-1797r-295,345r-34,0r105,-345r224,0"},"\u00de":{"d":"36,-37v147,-2,191,-25,191,-203r0,-868v0,-62,-1,-98,-3,-107v-12,-78,-88,-112,-188,-104r0,-37r578,0r0,37v-56,-1,-85,6,-134,23v-51,18,-64,142,-60,248r74,0v103,0,177,4,224,12v192,34,342,144,342,356v0,215,-164,346,-379,371v-20,2,-181,5,-261,5r0,61v-5,165,38,211,194,206r0,37r-578,0r0,-37xm420,-375v256,15,408,-89,410,-302v2,-151,-92,-256,-225,-285v-28,-6,-124,-9,-185,-8r0,595","w":1139},"\u00df":{"d":"592,-157v0,49,-29,114,46,114v100,0,150,-90,150,-269v0,-295,-98,-449,-295,-462r0,-57v143,0,215,-90,215,-271v0,-169,-64,-254,-192,-254v-122,0,-183,106,-183,319r0,1037r-298,0r0,-36v120,-18,132,-43,132,-189r0,-741v0,-304,119,-456,357,-456v202,0,357,127,352,325v-3,149,-65,225,-191,276v182,54,273,187,273,399v0,220,-129,435,-335,435v-101,0,-192,-64,-192,-162v0,-58,26,-87,79,-87v55,0,82,26,82,79","w":1024},"\u00e0":{"d":"146,-703v2,-201,104,-240,297,-240v153,0,253,44,287,138v35,97,15,344,18,487r6,335r-167,0r-4,-149v-95,73,-154,115,-177,126v-36,17,-74,25,-115,25v-131,2,-218,-104,-218,-236v0,-95,58,-176,173,-244v67,-40,180,-89,337,-146v7,-155,-28,-268,-145,-284v-51,-6,-99,1,-146,21v-47,20,-71,76,-72,167r-74,0xm241,-264v0,84,60,167,142,167v51,0,117,-33,200,-100r0,-349v-99,39,-164,68,-195,85v-98,55,-147,120,-147,197xm260,-1390r223,0r106,345r-35,0","w":909},"\u00e1":{"d":"146,-703v2,-201,104,-240,297,-240v153,0,253,44,287,138v35,97,15,344,18,487r6,335r-167,0r-4,-149v-95,73,-154,115,-177,126v-36,17,-74,25,-115,25v-131,2,-218,-104,-218,-236v0,-95,58,-176,173,-244v67,-40,180,-89,337,-146v7,-155,-28,-268,-145,-284v-51,-6,-99,1,-146,21v-47,20,-71,76,-72,167r-74,0xm241,-264v0,84,60,167,142,167v51,0,117,-33,200,-100r0,-349v-99,39,-164,68,-195,85v-98,55,-147,120,-147,197xm682,-1390r-295,345r-34,0r105,-345r224,0","w":909},"\u00e2":{"d":"146,-703v2,-201,104,-240,297,-240v153,0,253,44,287,138v35,97,15,344,18,487r6,335r-167,0r-4,-149v-95,73,-154,115,-177,126v-36,17,-74,25,-115,25v-131,2,-218,-104,-218,-236v0,-95,58,-176,173,-244v67,-40,180,-89,337,-146v7,-155,-28,-268,-145,-284v-51,-6,-99,1,-146,21v-47,20,-71,76,-72,167r-74,0xm241,-264v0,84,60,167,142,167v51,0,117,-33,200,-100r0,-349v-99,39,-164,68,-195,85v-98,55,-147,120,-147,197xm366,-1385r184,0r190,331r-31,0r-273,-213r-229,213r-30,0","w":909,"k":{"\u20a4":385,"\u203e":205,"\u2013":205,"\u1e80":205}},"\u00e3":{"d":"146,-703v2,-201,104,-240,297,-240v153,0,253,44,287,138v35,97,15,344,18,487r6,335r-167,0r-4,-149v-95,73,-154,115,-177,126v-36,17,-74,25,-115,25v-131,2,-218,-104,-218,-236v0,-95,58,-176,173,-244v67,-40,180,-89,337,-146v7,-155,-28,-268,-145,-284v-51,-6,-99,1,-146,21v-47,20,-71,76,-72,167r-74,0xm241,-264v0,84,60,167,142,167v51,0,117,-33,200,-100r0,-349v-99,39,-164,68,-195,85v-98,55,-147,120,-147,197xm264,-1234v-72,0,-73,42,-93,137r-32,0v4,-205,99,-293,263,-246v17,0,208,126,250,126v48,0,80,-46,95,-139r31,0v4,151,-61,263,-190,263v-53,0,-118,-27,-196,-80v-59,-41,-102,-61,-128,-61","w":909,"k":{"\u20a4":385,"\u203e":205,"\u2013":205,"\u1e80":205}},"\u00e4":{"d":"146,-703v2,-201,104,-240,297,-240v153,0,253,44,287,138v35,97,15,344,18,487r6,335r-167,0r-4,-149v-95,73,-154,115,-177,126v-36,17,-74,25,-115,25v-131,2,-218,-104,-218,-236v0,-95,58,-176,173,-244v67,-40,180,-89,337,-146v7,-155,-28,-268,-145,-284v-51,-6,-99,1,-146,21v-47,20,-71,76,-72,167r-74,0xm241,-264v0,84,60,167,142,167v51,0,117,-33,200,-100r0,-349v-99,39,-164,68,-195,85v-98,55,-147,120,-147,197xm525,-1228v0,-58,51,-109,109,-109v58,0,108,51,108,109v0,58,-50,108,-108,108v-58,0,-109,-50,-109,-108xm173,-1228v0,-58,50,-109,108,-109v60,0,109,49,109,109v0,58,-50,108,-108,108v-58,0,-109,-50,-109,-108","w":909},"\u00e5":{"d":"146,-703v2,-201,104,-240,297,-240v153,0,253,44,287,138v35,97,15,344,18,487r6,335r-167,0r-4,-149v-95,73,-154,115,-177,126v-36,17,-74,25,-115,25v-131,2,-218,-104,-218,-236v0,-95,58,-176,173,-244v67,-40,180,-89,337,-146v7,-155,-28,-268,-145,-284v-51,-6,-99,1,-146,21v-47,20,-71,76,-72,167r-74,0xm241,-264v0,84,60,167,142,167v51,0,117,-33,200,-100r0,-349v-99,39,-164,68,-195,85v-98,55,-147,120,-147,197xm267,-1235v0,-104,87,-191,191,-191v104,0,192,87,192,191v0,105,-87,192,-192,192v-104,0,-191,-88,-191,-192xm580,-1235v0,-66,-56,-122,-122,-122v-66,0,-122,56,-122,122v0,66,56,122,122,122v66,0,122,-56,122,-122","w":909},"\u00e6":{"d":"105,-716v-5,-132,167,-228,335,-228v149,0,239,41,270,123v109,-156,402,-167,516,-12v50,68,78,156,78,266r-570,0v-1,34,-1,59,-1,74v0,247,85,371,256,371v154,0,219,-76,283,-220r32,22v-24,108,-76,198,-155,270v-57,52,-129,78,-215,78v-162,0,-201,-43,-296,-160r-55,43v-87,77,-171,113,-287,117v-124,4,-228,-105,-223,-229v6,-156,85,-207,214,-274v104,-53,196,-94,276,-122r0,-92v0,-131,-49,-197,-147,-197v-70,0,-141,40,-141,105v0,109,-4,155,-80,160v-56,4,-88,-48,-90,-95xm734,-632r378,0v-3,-161,-64,-241,-185,-241v-123,0,-192,112,-193,241xm241,-258v-2,94,66,179,161,179v49,0,118,-35,208,-105v-42,-84,-50,-214,-47,-348v-91,28,-173,71,-248,128v-49,38,-74,87,-74,146","w":1366},"\u00e7":{"d":"530,-128v151,-7,225,-92,283,-234r29,14v-36,196,-175,373,-384,376v-237,4,-388,-235,-388,-485v0,-262,182,-493,437,-486v160,5,263,79,309,220r-69,38v-56,-133,-147,-196,-273,-191v-161,7,-242,159,-242,333v0,203,111,423,298,415xm465,234v0,-50,-49,-84,-106,-72r111,-178r60,0r-50,79v83,21,125,70,125,146v0,106,-105,184,-215,181v-25,0,-56,-2,-94,-7r0,-43v90,20,169,-28,169,-106","w":909},"\u00e8":{"d":"76,-446v0,-279,156,-498,423,-498v212,0,355,159,352,373r-633,0v-6,224,125,436,334,436v124,0,213,-73,268,-219r31,20v-24,184,-178,362,-375,362v-243,0,-400,-220,-400,-474xm642,-629v-2,-159,-74,-240,-199,-244v-129,-4,-215,117,-225,244r424,0xm285,-1390r223,0r106,345r-35,0","w":909},"\u00e9":{"d":"76,-446v0,-279,156,-498,423,-498v212,0,355,159,352,373r-633,0v-6,224,125,436,334,436v124,0,213,-73,268,-219r31,20v-24,184,-178,362,-375,362v-243,0,-400,-220,-400,-474xm642,-629v-2,-159,-74,-240,-199,-244v-129,-4,-215,117,-225,244r424,0xm695,-1390r-295,345r-34,0r105,-345r224,0","w":909},"\u00ea":{"d":"76,-446v0,-279,156,-498,423,-498v212,0,355,159,352,373r-633,0v-6,224,125,436,334,436v124,0,213,-73,268,-219r31,20v-24,184,-178,362,-375,362v-243,0,-400,-220,-400,-474xm642,-629v-2,-159,-74,-240,-199,-244v-129,-4,-215,117,-225,244r424,0xm403,-1385r184,0r190,331r-31,0r-273,-213r-229,213r-30,0","w":909},"\u00eb":{"d":"76,-446v0,-279,156,-498,423,-498v212,0,355,159,352,373r-633,0v-6,224,125,436,334,436v124,0,213,-73,268,-219r31,20v-24,184,-178,362,-375,362v-243,0,-400,-220,-400,-474xm642,-629v-2,-159,-74,-240,-199,-244v-129,-4,-215,117,-225,244r424,0xm562,-1228v0,-58,51,-109,109,-109v58,0,108,51,108,109v0,58,-50,108,-108,108v-58,0,-109,-50,-109,-108xm210,-1228v0,-58,50,-109,108,-109v60,0,109,49,109,109v0,58,-50,108,-108,108v-58,0,-109,-50,-109,-108","w":909},"\u00ec":{"d":"74,-36v119,-6,140,-39,140,-171r0,-353v0,-100,-3,-164,-9,-193v-13,-67,-70,-66,-131,-42r-14,-36r276,-112r43,0r0,736v8,131,15,173,140,171r0,36r-445,0r0,-36xm78,-1390r223,0r106,345r-35,0","w":569},"\u00ed":{"d":"74,-36v119,-6,140,-39,140,-171r0,-353v0,-100,-3,-164,-9,-193v-13,-67,-70,-66,-131,-42r-14,-36r276,-112r43,0r0,736v8,131,15,173,140,171r0,36r-445,0r0,-36xm499,-1390r-295,345r-34,0r105,-345r224,0","w":569},"\u00ee":{"d":"74,-36v119,-6,140,-39,140,-171r0,-353v0,-100,-3,-164,-9,-193v-13,-67,-70,-66,-131,-42r-14,-36r276,-112r43,0r0,736v8,131,15,173,140,171r0,36r-445,0r0,-36xm203,-1385r184,0r190,331r-31,0r-273,-213r-229,213r-30,0","w":569},"\u00ef":{"d":"74,-36v119,-6,140,-39,140,-171r0,-353v0,-100,-3,-164,-9,-193v-13,-67,-70,-66,-131,-42r-14,-36r276,-112r43,0r0,736v8,131,15,173,140,171r0,36r-445,0r0,-36xm355,-1228v0,-58,51,-109,109,-109v58,0,108,51,108,109v0,58,-50,108,-108,108v-58,0,-109,-50,-109,-108xm3,-1228v0,-58,50,-109,108,-109v60,0,109,49,109,109v0,58,-50,108,-108,108v-58,0,-109,-50,-109,-108","w":569},"\u00f0":{"d":"68,-441v0,-269,210,-557,508,-481v21,5,48,22,81,46v-53,-110,-116,-208,-188,-293r-247,135r-30,-55r233,-132v-65,-65,-127,-118,-188,-158r27,-43v80,40,162,92,247,155r249,-139r34,55r-229,130v199,169,384,430,384,747v0,200,-73,346,-219,437v-69,43,-146,65,-231,65v-247,0,-431,-219,-431,-469xm547,-42v263,0,247,-446,161,-649v-51,-121,-126,-183,-229,-183v-151,0,-226,119,-226,356v0,200,50,340,150,420v46,37,94,56,144,56","w":1024},"\u00f1":{"d":"638,-943v161,0,237,134,237,345r1,598r-166,0r0,-582v0,-159,-47,-238,-142,-238v-79,0,-158,43,-237,130r-1,690r-164,0r1,-943r164,0r0,194v107,-129,210,-194,307,-194xm318,-1234v-72,0,-73,42,-93,137r-32,0v4,-205,99,-293,263,-246v17,0,208,126,250,126v48,0,80,-46,95,-139r31,0v4,151,-61,263,-190,263v-53,0,-118,-27,-196,-80v-59,-41,-102,-61,-128,-61","w":1024},"\u00f2":{"d":"69,-449v6,-268,173,-487,443,-494v250,-6,448,218,441,468v-8,276,-169,496,-452,503v-248,6,-438,-230,-432,-477xm481,-878v-154,-2,-226,158,-226,345v0,113,20,216,61,309v53,121,129,181,228,181v149,0,223,-118,223,-355v0,-162,-35,-290,-105,-384v-48,-64,-108,-96,-181,-96xm301,-1390r223,0r106,345r-35,0","w":1024},"\u00f3":{"d":"69,-449v6,-268,173,-487,443,-494v250,-6,448,218,441,468v-8,276,-169,496,-452,503v-248,6,-438,-230,-432,-477xm481,-878v-154,-2,-226,158,-226,345v0,113,20,216,61,309v53,121,129,181,228,181v149,0,223,-118,223,-355v0,-162,-35,-290,-105,-384v-48,-64,-108,-96,-181,-96xm723,-1390r-295,345r-34,0r105,-345r224,0","w":1024},"\u00f4":{"d":"69,-449v6,-268,173,-487,443,-494v250,-6,448,218,441,468v-8,276,-169,496,-452,503v-248,6,-438,-230,-432,-477xm481,-878v-154,-2,-226,158,-226,345v0,113,20,216,61,309v53,121,129,181,228,181v149,0,223,-118,223,-355v0,-162,-35,-290,-105,-384v-48,-64,-108,-96,-181,-96xm431,-1385r184,0r190,331r-31,0r-273,-213r-229,213r-30,0","w":1024},"\u00f5":{"d":"69,-449v6,-268,173,-487,443,-494v250,-6,448,218,441,468v-8,276,-169,496,-452,503v-248,6,-438,-230,-432,-477xm481,-878v-154,-2,-226,158,-226,345v0,113,20,216,61,309v53,121,129,181,228,181v149,0,223,-118,223,-355v0,-162,-35,-290,-105,-384v-48,-64,-108,-96,-181,-96xm317,-1234v-72,0,-73,42,-93,137r-32,0v4,-205,99,-293,263,-246v17,0,208,126,250,126v48,0,80,-46,95,-139r31,0v4,151,-61,263,-190,263v-53,0,-118,-27,-196,-80v-59,-41,-102,-61,-128,-61","w":1024},"\u00f6":{"d":"69,-449v6,-268,173,-487,443,-494v250,-6,448,218,441,468v-8,276,-169,496,-452,503v-248,6,-438,-230,-432,-477xm481,-878v-154,-2,-226,158,-226,345v0,113,20,216,61,309v53,121,129,181,228,181v149,0,223,-118,223,-355v0,-162,-35,-290,-105,-384v-48,-64,-108,-96,-181,-96xm578,-1228v0,-58,51,-109,109,-109v58,0,108,51,108,109v0,58,-50,108,-108,108v-58,0,-109,-50,-109,-108xm226,-1228v0,-58,50,-109,108,-109v60,0,109,49,109,109v0,58,-50,108,-108,108v-58,0,-109,-50,-109,-108","w":1024},"\u00f7":{"d":"474,-988v0,-48,40,-87,88,-87v47,0,87,40,87,87v0,48,-40,87,-88,87v-47,0,-87,-40,-87,-87xm1101,-640r-1078,0r0,-82r1078,0r0,82xm474,-367v0,-48,40,-88,88,-88v48,0,88,40,88,88v0,47,-41,88,-88,88v-47,0,-88,-41,-88,-88","w":1124},"\u00f8":{"d":"74,-455v0,-265,175,-488,447,-488v102,0,197,37,285,111r133,-147r46,43r-135,152v71,90,106,194,106,312v0,272,-169,500,-449,500v-100,0,-195,-38,-286,-114r-135,153r-47,-43r141,-159v-71,-87,-106,-194,-106,-320xm704,-719v-61,-105,-133,-158,-216,-158v-152,0,-228,115,-228,345v0,83,13,170,39,262xm732,-654r-403,450v59,107,132,161,218,161v149,0,224,-120,224,-359v0,-81,-13,-165,-39,-252","w":1024},"\u00f9":{"d":"391,28v-176,-1,-234,-146,-234,-357r0,-587r166,0r0,613v0,139,51,208,152,208v66,0,142,-43,227,-130r0,-691r165,0r-1,944r-164,0r0,-194v-60,65,-106,109,-137,132v-56,41,-114,62,-174,62xm307,-1390r223,0r106,345r-35,0","w":1024},"\u00fa":{"d":"391,28v-176,-1,-234,-146,-234,-357r0,-587r166,0r0,613v0,139,51,208,152,208v66,0,142,-43,227,-130r0,-691r165,0r-1,944r-164,0r0,-194v-60,65,-106,109,-137,132v-56,41,-114,62,-174,62xm699,-1390r-295,345r-34,0r105,-345r224,0","w":1024},"\u00fb":{"d":"391,28v-176,-1,-234,-146,-234,-357r0,-587r166,0r0,613v0,139,51,208,152,208v66,0,142,-43,227,-130r0,-691r165,0r-1,944r-164,0r0,-194v-60,65,-106,109,-137,132v-56,41,-114,62,-174,62xm423,-1385r184,0r190,331r-31,0r-273,-213r-229,213r-30,0","w":1024},"\u00fc":{"d":"391,28v-176,-1,-234,-146,-234,-357r0,-587r166,0r0,613v0,139,51,208,152,208v66,0,142,-43,227,-130r0,-691r165,0r-1,944r-164,0r0,-194v-60,65,-106,109,-137,132v-56,41,-114,62,-174,62xm578,-1228v0,-58,51,-109,109,-109v58,0,108,51,108,109v0,58,-50,108,-108,108v-58,0,-109,-50,-109,-108xm226,-1228v0,-58,50,-109,108,-109v60,0,109,49,109,109v0,58,-50,108,-108,108v-58,0,-109,-50,-109,-108","w":1024},"\u00fd":{"d":"89,-916r183,0r312,675r275,-675r93,2r-555,1355r-94,0r201,-477xm732,-1390r-295,345r-34,0r105,-345r224,0","w":1024},"\u00fe":{"d":"536,28v-105,-1,-156,-24,-218,-81r1,490r-167,0r0,-1857r167,0r-1,695v85,-145,183,-218,293,-218v220,0,343,220,343,452v0,267,-156,521,-418,519xm532,-798v-113,0,-124,41,-214,132r0,342v-1,155,7,193,86,254v36,27,80,38,129,38v291,2,295,-518,151,-688v-43,-51,-93,-78,-152,-78","w":1024},"\u00ff":{"d":"89,-916r183,0r312,675r275,-675r93,2r-555,1355r-94,0r201,-477xm616,-1228v0,-58,51,-109,109,-109v58,0,108,51,108,109v0,58,-50,108,-108,108v-58,0,-109,-50,-109,-108xm264,-1228v0,-58,50,-109,108,-109v60,0,109,49,109,109v0,58,-50,108,-108,108v-58,0,-109,-50,-109,-108","w":1024},"\u0100":{"d":"716,-1387r35,0r623,1387r-253,0r-43,-116r-141,-338r-525,0r-196,454r-101,0xm909,-528r-230,-548r-236,548r466,0xm415,-1636r638,0r0,128r-638,0r0,-128"},"\u0101":{"d":"146,-703v2,-201,104,-240,297,-240v153,0,253,44,287,138v35,97,15,344,18,487r6,335r-167,0r-4,-149v-95,73,-154,115,-177,126v-36,17,-74,25,-115,25v-131,2,-218,-104,-218,-236v0,-95,58,-176,173,-244v67,-40,180,-89,337,-146v7,-155,-28,-268,-145,-284v-51,-6,-99,1,-146,21v-47,20,-71,76,-72,167r-74,0xm241,-264v0,84,60,167,142,167v51,0,117,-33,200,-100r0,-349v-99,39,-164,68,-195,85v-98,55,-147,120,-147,197xm137,-1248r638,0r0,128r-638,0r0,-128","w":909},"\u0102":{"d":"716,-1387r35,0r623,1387r-253,0r-43,-116r-141,-338r-525,0r-196,454r-101,0xm909,-528r-230,-548r-236,548r466,0xm1022,-1759v-8,152,-129,280,-286,280v-158,0,-277,-129,-286,-280r31,0v47,93,130,129,257,129v121,0,219,-37,251,-129r33,0"},"\u0103":{"d":"146,-703v2,-201,104,-240,297,-240v153,0,253,44,287,138v35,97,15,344,18,487r6,335r-167,0r-4,-149v-95,73,-154,115,-177,126v-36,17,-74,25,-115,25v-131,2,-218,-104,-218,-236v0,-95,58,-176,173,-244v67,-40,180,-89,337,-146v7,-155,-28,-268,-145,-284v-51,-6,-99,1,-146,21v-47,20,-71,76,-72,167r-74,0xm241,-264v0,84,60,167,142,167v51,0,117,-33,200,-100r0,-349v-99,39,-164,68,-195,85v-98,55,-147,120,-147,197xm739,-1358v-8,152,-129,280,-286,280v-158,0,-277,-129,-286,-280r31,0v47,93,130,129,257,129v121,0,219,-37,251,-129r33,0","w":909},"\u0104":{"d":"716,-1387r35,0r623,1387r-253,0r-43,-116r-141,-338r-525,0r-196,454r-101,0xm909,-528r-230,-548r-236,548r466,0xm1255,363v-123,0,-229,-68,-229,-184v0,-79,27,-144,80,-195r52,0v-17,35,-26,68,-26,99v-1,166,182,235,333,172r21,32v-91,51,-168,76,-231,76"},"\u0105":{"d":"146,-703v2,-201,104,-240,297,-240v153,0,253,44,287,138v35,97,15,344,18,487r6,335r-167,0r-4,-149v-95,73,-154,115,-177,126v-36,17,-74,25,-115,25v-131,2,-218,-104,-218,-236v0,-95,58,-176,173,-244v67,-40,180,-89,337,-146v7,-155,-28,-268,-145,-284v-51,-6,-99,1,-146,21v-47,20,-71,76,-72,167r-74,0xm241,-264v0,84,60,167,142,167v51,0,117,-33,200,-100r0,-349v-99,39,-164,68,-195,85v-98,55,-147,120,-147,197xm802,363v-123,0,-229,-68,-229,-184v0,-79,27,-144,80,-195r52,0v-17,35,-26,68,-26,99v-1,166,182,235,333,172r21,32v-91,51,-168,76,-231,76","w":909},"\u0106":{"d":"734,1v-384,0,-662,-298,-660,-688v1,-292,146,-523,342,-637v177,-104,437,-131,614,-24v91,56,170,144,238,265r-31,20v-81,-112,-155,-187,-222,-224v-69,-39,-148,-58,-235,-58v-197,0,-336,96,-415,287v-42,100,-63,224,-63,373v0,255,79,430,237,526v79,48,169,72,270,72v240,0,329,-111,455,-281r31,20v-131,233,-318,349,-561,349xm977,-1797r-295,345r-34,0r105,-345r224,0","w":1366},"\u0107":{"d":"530,-128v151,-7,225,-92,283,-234r29,14v-36,196,-175,373,-384,376v-237,4,-388,-235,-388,-485v0,-262,182,-493,437,-486v160,5,263,79,309,220r-69,38v-56,-133,-147,-196,-273,-191v-161,7,-242,159,-242,333v0,203,111,423,298,415xm712,-1390r-295,345r-34,0r105,-345r224,0","w":909},"\u0108":{"d":"734,1v-384,0,-662,-298,-660,-688v1,-292,146,-523,342,-637v177,-104,437,-131,614,-24v91,56,170,144,238,265r-31,20v-81,-112,-155,-187,-222,-224v-69,-39,-148,-58,-235,-58v-197,0,-336,96,-415,287v-42,100,-63,224,-63,373v0,255,79,430,237,526v79,48,169,72,270,72v240,0,329,-111,455,-281r31,20v-131,233,-318,349,-561,349xm623,-1822r184,0r190,331r-31,0r-273,-213r-229,213r-30,0","w":1366},"\u0109":{"d":"530,-128v151,-7,225,-92,283,-234r29,14v-36,196,-175,373,-384,376v-237,4,-388,-235,-388,-485v0,-262,182,-493,437,-486v160,5,263,79,309,220r-69,38v-56,-133,-147,-196,-273,-191v-161,7,-242,159,-242,333v0,203,111,423,298,415xm363,-1385r184,0r190,331r-31,0r-273,-213r-229,213r-30,0","w":909},"\u010a":{"d":"734,1v-384,0,-662,-298,-660,-688v1,-292,146,-523,342,-637v177,-104,437,-131,614,-24v91,56,170,144,238,265r-31,20v-81,-112,-155,-187,-222,-224v-69,-39,-148,-58,-235,-58v-197,0,-336,96,-415,287v-42,100,-63,224,-63,373v0,255,79,430,237,526v79,48,169,72,270,72v240,0,329,-111,455,-281r31,20v-131,233,-318,349,-561,349xm614,-1600v0,-60,49,-109,109,-109v58,0,109,51,109,109v0,58,-51,109,-109,109v-58,0,-109,-51,-109,-109","w":1366},"\u010b":{"d":"530,-128v151,-7,225,-92,283,-234r29,14v-36,196,-175,373,-384,376v-237,4,-388,-235,-388,-485v0,-262,182,-493,437,-486v160,5,263,79,309,220r-69,38v-56,-133,-147,-196,-273,-191v-161,7,-242,159,-242,333v0,203,111,423,298,415xm347,-1228v0,-60,49,-109,109,-109v58,0,109,51,109,109v0,58,-51,109,-109,109v-58,0,-109,-51,-109,-109","w":909},"\u010c":{"d":"734,1v-384,0,-662,-298,-660,-688v1,-292,146,-523,342,-637v177,-104,437,-131,614,-24v91,56,170,144,238,265r-31,20v-81,-112,-155,-187,-222,-224v-69,-39,-148,-58,-235,-58v-197,0,-336,96,-415,287v-42,100,-63,224,-63,373v0,255,79,430,237,526v79,48,169,72,270,72v240,0,329,-111,455,-281r31,20v-131,233,-318,349,-561,349xm850,-1462r-184,0r-190,-331r31,0r273,212r229,-212r30,0","w":1366},"\u010d":{"d":"530,-128v151,-7,225,-92,283,-234r29,14v-36,196,-175,373,-384,376v-237,4,-388,-235,-388,-485v0,-262,182,-493,437,-486v160,5,263,79,309,220r-69,38v-56,-133,-147,-196,-273,-191v-161,7,-242,159,-242,333v0,203,111,423,298,415xm585,-1054r-184,0r-190,-331r31,0r273,212r229,-212r30,0","w":909},"\u010e":{"d":"1401,-685v0,430,-294,696,-760,685r-411,0r0,-1356v254,2,595,-9,764,49v238,81,407,311,407,622xm1173,-675v0,-347,-208,-610,-546,-605v-60,0,-128,10,-205,29r0,1153v85,19,156,28,213,28v329,5,538,-266,538,-605xm774,-1462r-184,0r-190,-331r31,0r273,212r229,-212r30,0"},"\u010f":{"d":"1133,-1422v98,-2,173,100,173,197v0,149,-86,256,-259,321r0,-47v69,-41,115,-79,140,-114v17,-25,26,-55,26,-91v0,-41,-12,-61,-37,-61v-19,0,-55,17,-74,17v-55,0,-100,-52,-100,-106v0,-75,65,-114,131,-116xm68,-420v0,-261,191,-524,443,-524v81,0,147,26,200,77v0,-117,5,-397,-31,-411v-33,-22,-64,-13,-109,3r-13,-35r273,-112r45,0r0,1059v0,146,10,229,32,246v33,26,63,13,110,-3r11,35r-272,113r-46,0r0,-131v-83,87,-173,131,-269,131v-220,0,-374,-219,-374,-448xm499,-882v-359,0,-315,800,36,800v61,0,119,-30,176,-91r0,-472v-9,-135,-84,-237,-212,-237","w":1324},"\u0110":{"d":"1400,-687v0,442,-306,687,-760,687r-605,0r0,-37v149,3,195,-29,195,-203r0,-438r-195,0r0,-74r195,0r0,-364v6,-178,-43,-205,-195,-203r0,-37v310,7,737,-25,958,49v229,77,407,311,407,620xm1173,-677v0,-346,-209,-610,-545,-605v-60,0,-128,10,-205,29r0,501r393,0r0,74r-393,0r0,578v85,19,156,28,213,28v329,5,537,-265,537,-605"},"\u0111":{"d":"38,-420v0,-261,191,-524,443,-524v81,0,147,26,200,77r0,-201r-291,0r0,-82r290,0v-3,-90,-6,-141,-70,-141v-17,0,-40,5,-69,16r-13,-35r273,-112r45,0r0,272r153,0r0,82r-153,0r0,705v0,146,10,229,32,246v33,26,63,13,110,-3r11,35r-272,113r-46,0r0,-131v-83,87,-173,131,-269,131v-220,0,-374,-219,-374,-448xm469,-882v-359,0,-315,800,36,800v61,0,119,-30,176,-91r0,-472v-9,-135,-84,-237,-212,-237","w":1024},"\u0112":{"d":"428,-226v-2,125,3,152,112,152r547,0r0,74r-853,0r1,-1356r852,0r0,74r-659,0r0,536r550,0r0,73r-550,0r0,447xm308,-1636r638,0r0,128r-638,0r0,-128","w":1251},"\u0113":{"d":"76,-446v0,-279,156,-498,423,-498v212,0,355,159,352,373r-633,0v-6,224,125,436,334,436v124,0,213,-73,268,-219r31,20v-24,184,-178,362,-375,362v-243,0,-400,-220,-400,-474xm642,-629v-2,-159,-74,-240,-199,-244v-129,-4,-215,117,-225,244r424,0xm137,-1248r638,0r0,128r-638,0r0,-128","w":909},"\u0114":{"d":"428,-226v-2,125,3,152,112,152r547,0r0,74r-853,0r1,-1356r852,0r0,74r-659,0r0,536r550,0r0,73r-550,0r0,447xm911,-1770v-8,152,-129,280,-286,280v-158,0,-277,-129,-286,-280r31,0v47,93,130,129,257,129v121,0,219,-37,251,-129r33,0","w":1251},"\u0115":{"d":"76,-446v0,-279,156,-498,423,-498v212,0,355,159,352,373r-633,0v-6,224,125,436,334,436v124,0,213,-73,268,-219r31,20v-24,184,-178,362,-375,362v-243,0,-400,-220,-400,-474xm642,-629v-2,-159,-74,-240,-199,-244v-129,-4,-215,117,-225,244r424,0xm748,-1358v-8,152,-129,280,-286,280v-158,0,-277,-129,-286,-280r31,0v47,93,130,129,257,129v121,0,219,-37,251,-129r33,0","w":909},"\u0116":{"d":"428,-226v-2,125,3,152,112,152r547,0r0,74r-853,0r1,-1356r852,0r0,74r-659,0r0,536r550,0r0,73r-550,0r0,447xm517,-1600v0,-60,49,-109,109,-109v58,0,109,51,109,109v0,58,-51,109,-109,109v-58,0,-109,-51,-109,-109","w":1251},"\u0117":{"d":"76,-446v0,-279,156,-498,423,-498v212,0,355,159,352,373r-633,0v-6,224,125,436,334,436v124,0,213,-73,268,-219r31,20v-24,184,-178,362,-375,362v-243,0,-400,-220,-400,-474xm642,-629v-2,-159,-74,-240,-199,-244v-129,-4,-215,117,-225,244r424,0xm347,-1228v0,-60,49,-109,109,-109v58,0,109,51,109,109v0,58,-51,109,-109,109v-58,0,-109,-51,-109,-109","w":909},"\u0118":{"d":"428,-226v-2,125,3,152,112,152r547,0r0,74r-853,0r1,-1356r852,0r0,74r-659,0r0,536r550,0r0,73r-550,0r0,447xm961,363v-123,0,-229,-68,-229,-184v0,-79,27,-144,80,-195r52,0v-17,35,-26,68,-26,99v-1,166,182,235,333,172r21,32v-91,51,-168,76,-231,76","w":1251},"\u0119":{"d":"76,-446v0,-279,156,-498,423,-498v212,0,355,159,352,373r-633,0v-6,224,125,436,334,436v124,0,213,-73,268,-219r31,20v-24,184,-178,362,-375,362v-243,0,-400,-220,-400,-474xm642,-629v-2,-159,-74,-240,-199,-244v-129,-4,-215,117,-225,244r424,0xm717,363v-123,0,-229,-68,-229,-184v0,-79,27,-144,80,-195r52,0v-17,35,-26,68,-26,99v-1,166,182,235,333,172r21,32v-91,51,-168,76,-231,76","w":909},"\u011a":{"d":"428,-226v-2,125,3,152,112,152r547,0r0,74r-853,0r1,-1356r852,0r0,74r-659,0r0,536r550,0r0,73r-550,0r0,447xm715,-1462r-184,0r-190,-331r31,0r273,212r229,-212r30,0","w":1251},"\u011b":{"d":"76,-446v0,-279,156,-498,423,-498v212,0,355,159,352,373r-633,0v-6,224,125,436,334,436v124,0,213,-73,268,-219r31,20v-24,184,-178,362,-375,362v-243,0,-400,-220,-400,-474xm642,-629v-2,-159,-74,-240,-199,-244v-129,-4,-215,117,-225,244r424,0xm580,-1054r-184,0r-190,-331r31,0r273,212r229,-212r30,0","w":909},"\u011c":{"d":"79,-687v-2,390,277,688,660,688v108,0,227,-13,339,-76r223,-126r-1,-539r-375,0r0,118v87,0,142,21,163,64v15,12,14,13,15,54r0,312v-125,70,-222,105,-289,105v-343,0,-508,-243,-507,-598v0,-296,78,-493,234,-592v73,-45,154,-68,244,-68v244,0,321,101,457,282r31,-20v-68,-121,-147,-209,-238,-265v-177,-108,-442,-79,-617,26v-193,116,-338,344,-339,635xm677,-1822r184,0r190,331r-31,0r-273,-213r-229,213r-30,0"},"\u011d":{"d":"149,-119v18,-103,65,-129,160,-215v-100,-47,-172,-143,-174,-277v-2,-186,167,-332,365,-332v87,0,163,21,227,64r194,0v58,0,66,-3,66,43v0,50,-7,47,-66,47r-119,0v37,48,56,109,56,184v2,229,-252,367,-500,290v-43,38,-68,63,-75,115v5,36,33,50,81,56v70,9,382,11,407,21v113,14,203,89,204,207v0,75,-35,146,-106,212v-104,97,-240,146,-407,146v-129,0,-238,-27,-326,-87v-66,-45,-97,-85,-64,-152v43,-86,66,-102,172,-211v-53,-35,-88,-49,-95,-111xm683,-580v-2,-162,-55,-315,-200,-315v-116,0,-174,100,-174,240v0,163,56,311,200,311v119,0,176,-95,174,-236xm299,0v-65,69,-150,186,-37,260v113,74,448,84,554,-2v55,-45,86,-87,86,-135v0,-35,-17,-60,-51,-74v-99,-39,-456,-25,-552,-49xm420,-1385r184,0r190,331r-31,0r-273,-213r-229,213r-30,0","w":1024},"\u011e":{"d":"79,-687v-2,390,277,688,660,688v108,0,227,-13,339,-76r223,-126r-1,-539r-375,0r0,118v87,0,142,21,163,64v15,12,14,13,15,54r0,312v-125,70,-222,105,-289,105v-343,0,-508,-243,-507,-598v0,-296,78,-493,234,-592v73,-45,154,-68,244,-68v244,0,321,101,457,282r31,-20v-68,-121,-147,-209,-238,-265v-177,-108,-442,-79,-617,26v-193,116,-338,344,-339,635xm1095,-1756v-8,152,-129,280,-286,280v-158,0,-277,-129,-286,-280r31,0v47,93,130,129,257,129v121,0,219,-37,251,-129r33,0"},"\u011f":{"d":"149,-119v18,-103,65,-129,160,-215v-100,-47,-172,-143,-174,-277v-2,-186,167,-332,365,-332v87,0,163,21,227,64r194,0v58,0,66,-3,66,43v0,50,-7,47,-66,47r-119,0v37,48,56,109,56,184v2,229,-252,367,-500,290v-43,38,-68,63,-75,115v5,36,33,50,81,56v70,9,382,11,407,21v113,14,203,89,204,207v0,75,-35,146,-106,212v-104,97,-240,146,-407,146v-129,0,-238,-27,-326,-87v-66,-45,-97,-85,-64,-152v43,-86,66,-102,172,-211v-53,-35,-88,-49,-95,-111xm683,-580v-2,-162,-55,-315,-200,-315v-116,0,-174,100,-174,240v0,163,56,311,200,311v119,0,176,-95,174,-236xm299,0v-65,69,-150,186,-37,260v113,74,448,84,554,-2v55,-45,86,-87,86,-135v0,-35,-17,-60,-51,-74v-99,-39,-456,-25,-552,-49xm810,-1358v-8,152,-129,280,-286,280v-158,0,-277,-129,-286,-280r31,0v47,93,130,129,257,129v121,0,219,-37,251,-129r33,0","w":1024},"\u0120":{"d":"79,-687v-2,390,277,688,660,688v108,0,227,-13,339,-76r223,-126r-1,-539r-375,0r0,118v87,0,142,21,163,64v15,12,14,13,15,54r0,312v-125,70,-222,105,-289,105v-343,0,-508,-243,-507,-598v0,-296,78,-493,234,-592v73,-45,154,-68,244,-68v244,0,321,101,457,282r31,-20v-68,-121,-147,-209,-238,-265v-177,-108,-442,-79,-617,26v-193,116,-338,344,-339,635xm649,-1600v0,-60,49,-109,109,-109v58,0,109,51,109,109v0,58,-51,109,-109,109v-58,0,-109,-51,-109,-109"},"\u0121":{"d":"149,-119v18,-103,65,-129,160,-215v-100,-47,-172,-143,-174,-277v-2,-186,167,-332,365,-332v87,0,163,21,227,64r194,0v58,0,66,-3,66,43v0,50,-7,47,-66,47r-119,0v37,48,56,109,56,184v2,229,-252,367,-500,290v-43,38,-68,63,-75,115v5,36,33,50,81,56v70,9,382,11,407,21v113,14,203,89,204,207v0,75,-35,146,-106,212v-104,97,-240,146,-407,146v-129,0,-238,-27,-326,-87v-66,-45,-97,-85,-64,-152v43,-86,66,-102,172,-211v-53,-35,-88,-49,-95,-111xm683,-580v-2,-162,-55,-315,-200,-315v-116,0,-174,100,-174,240v0,163,56,311,200,311v119,0,176,-95,174,-236xm299,0v-65,69,-150,186,-37,260v113,74,448,84,554,-2v55,-45,86,-87,86,-135v0,-35,-17,-60,-51,-74v-99,-39,-456,-25,-552,-49xm404,-1228v0,-60,49,-109,109,-109v58,0,109,51,109,109v0,58,-51,109,-109,109v-58,0,-109,-51,-109,-109","w":1024},"\u0122":{"d":"79,-687v-2,390,277,688,660,688v108,0,227,-13,339,-76r223,-126r-1,-539r-375,0r0,118v87,0,142,21,163,64v15,12,14,13,15,54r0,312v-125,70,-222,105,-289,105v-343,0,-508,-243,-507,-598v0,-296,78,-493,234,-592v73,-45,154,-68,244,-68v244,0,321,101,457,282r31,-20v-68,-121,-147,-209,-238,-265v-177,-108,-442,-79,-617,26v-193,116,-338,344,-339,635xm754,234v0,-50,-49,-84,-106,-72r111,-178r60,0r-50,79v83,21,125,70,125,146v0,106,-105,184,-215,181v-25,0,-56,-2,-94,-7r0,-43v90,20,169,-28,169,-106"},"\u0123":{"d":"858,-605v0,234,-255,364,-500,290v-50,43,-75,82,-75,115v0,29,27,49,81,56v71,9,381,11,407,21v113,14,204,89,204,207v0,75,-35,146,-106,212v-104,97,-240,146,-407,146v-129,0,-240,-27,-326,-87v-118,-82,-85,-136,6,-255v5,-7,39,-43,102,-108v-63,-38,-95,-75,-95,-111v0,-54,53,-126,160,-215v-116,-57,-174,-149,-174,-277v0,-191,170,-332,365,-332v87,0,163,21,227,64r194,0v58,3,66,-2,66,43v0,52,-7,46,-66,47r-119,0v37,48,56,109,56,184xm683,-580v0,-162,-55,-310,-200,-315v-120,-4,-174,110,-174,240v0,163,56,311,200,311v116,0,174,-79,174,-236xm262,260v163,105,637,89,640,-137v0,-46,-34,-80,-103,-90v-116,-18,-416,-14,-500,-33v-63,69,-95,127,-95,176v0,32,19,60,58,84xm522,-1119v-82,0,-133,-76,-133,-161v0,-138,79,-209,238,-214r0,41v-83,-2,-174,62,-174,141v0,67,63,10,89,10v57,0,85,29,85,87v0,57,-48,96,-105,96","w":1024},"\u0124":{"d":"1051,-727r-630,0r-1,-629r-192,0r1,1356r192,0r0,-653r630,0r0,653r191,0r-1,-1356r-190,0r0,629xm648,-1822r184,0r190,331r-31,0r-273,-213r-229,213r-30,0"},"\u0125":{"d":"333,-1422r0,670v56,-61,102,-104,135,-129v146,-111,341,-72,388,116v11,43,19,121,19,234r1,531r-167,0r0,-531v0,-74,-1,-122,-4,-143v-14,-94,-49,-148,-143,-148v-71,0,-147,44,-229,131r-1,691r-165,0r0,-1421xm420,-1822r184,0r190,331r-31,0r-273,-213r-229,213r-30,0","w":1024},"\u0126":{"d":"35,-37v156,3,194,-32,194,-203r0,-828r-185,0r0,-82r185,0v-4,-96,-5,-113,-60,-149v-34,-22,-81,-21,-134,-20r0,-37r581,0r0,37v-86,-4,-160,9,-181,65v-6,16,-11,50,-13,104r628,0v-4,-96,-6,-114,-60,-149v-35,-22,-80,-21,-133,-20r0,-37r580,0r0,37v-86,-4,-160,9,-180,65v-6,16,-11,50,-14,104r185,0r0,82r-185,0r0,828v-1,116,2,145,63,184v34,22,79,20,131,19r0,37r-580,0r0,-37v155,4,194,-33,194,-203r0,-413r-630,0r0,413v0,55,2,90,5,105v14,79,91,105,190,98r0,37r-581,0r0,-37xm1051,-1068r-630,0r0,351r630,0r0,-351"},"\u0127":{"d":"166,-1150v7,-121,-38,-167,-138,-125r-15,-35r274,-112r46,0r0,272r290,0r0,82r-290,0r0,316v96,-105,162,-191,307,-191v196,0,235,166,235,412r0,324v-3,130,20,172,137,171r0,36r-451,0r0,-36v126,-1,154,-34,149,-171v-6,-153,13,-400,-14,-512v-17,-69,-64,-103,-132,-103v-71,0,-148,44,-231,131r2,571v18,48,43,93,147,84r0,36r-454,0r0,-36v123,-5,139,-37,140,-171r-1,-861r-154,0r0,-82r153,0","w":1024},"\u0128":{"d":"437,0r-192,0r0,-1356r192,0r0,1356xm147,-1628v-72,0,-73,42,-93,137r-32,0v4,-205,99,-293,263,-246v17,0,208,126,250,126v48,0,80,-46,95,-139r31,0v4,151,-61,263,-190,263v-53,0,-118,-27,-196,-80v-59,-41,-102,-61,-128,-61","w":682},"\u0129":{"d":"75,-36v119,-6,140,-39,140,-171r0,-353v0,-100,-3,-164,-9,-193v-13,-67,-70,-66,-131,-42r-14,-36r276,-112r43,0r0,736v8,131,15,173,140,171r0,36r-445,0r0,-36xm92,-1234v-72,0,-73,42,-93,137r-32,0v4,-205,99,-293,263,-246v17,0,208,126,250,126v48,0,80,-46,95,-139r31,0v4,151,-61,263,-190,263v-53,0,-118,-27,-196,-80v-59,-41,-102,-61,-128,-61","w":569},"\u012a":{"d":"437,0r-192,0r0,-1356r192,0r0,1356xm23,-1636r638,0r0,128r-638,0r0,-128","w":682},"\u012b":{"d":"75,-36v119,-6,140,-39,140,-171r0,-353v0,-100,-3,-164,-9,-193v-13,-67,-70,-66,-131,-42r-14,-36r276,-112r43,0r0,736v8,131,15,173,140,171r0,36r-445,0r0,-36xm-42,-1248r638,0r0,128r-638,0r0,-128","w":569},"\u012c":{"d":"437,0r-192,0r0,-1356r192,0r0,1356xm627,-1770v-8,152,-129,280,-286,280v-158,0,-277,-129,-286,-280r31,0v47,93,130,129,257,129v121,0,219,-37,251,-129r33,0","w":682},"\u012d":{"d":"75,-36v119,-6,140,-39,140,-171r0,-353v0,-100,-3,-164,-9,-193v-13,-67,-70,-66,-131,-42r-14,-36r276,-112r43,0r0,736v8,131,15,173,140,171r0,36r-445,0r0,-36xm571,-1358v-8,152,-129,280,-286,280v-158,0,-277,-129,-286,-280r31,0v47,93,130,129,257,129v121,0,219,-37,251,-129r33,0","w":569},"\u012e":{"d":"437,0r-192,0r0,-1356r192,0r0,1356xm450,363v-123,0,-229,-68,-229,-184v0,-79,27,-144,80,-195r52,0v-17,35,-26,68,-26,99v-1,166,182,235,333,172r21,32v-91,51,-168,76,-231,76","w":682},"\u012f":{"d":"195,-1321v0,-56,46,-101,102,-101v55,0,101,47,101,101v0,54,-46,102,-101,102v-54,0,-102,-48,-102,-102xm380,-943r1,943r-167,3r0,-950xm419,363v-123,0,-229,-68,-229,-184v0,-79,27,-144,80,-195r52,0v-17,35,-26,68,-26,99v-1,166,182,235,333,172r21,32v-91,51,-168,76,-231,76","w":569},"\u0130":{"d":"437,0r-192,0r0,-1356r192,0r0,1356xm233,-1600v0,-60,49,-109,109,-109v58,0,109,51,109,109v0,58,-51,109,-109,109v-58,0,-109,-51,-109,-109","w":682},"\u0131":{"d":"74,-36v119,-6,140,-39,140,-171r0,-353v0,-100,-3,-164,-9,-193v-13,-67,-70,-66,-131,-42r-14,-36r276,-112r43,0r0,736v8,131,15,173,140,171r0,36r-445,0r0,-36","w":569},"\u0132":{"d":"437,0r-192,0r0,-1356r192,0r0,1356xm1251,-453v1,200,-17,330,-51,389v-34,59,-111,89,-232,90v-121,1,-209,-48,-266,-148r70,-37v56,73,118,109,186,107v68,-2,101,-49,101,-138r0,-1166r192,1r0,902","w":1451},"\u0133":{"d":"195,-1321v0,-56,46,-101,102,-101v55,0,101,47,101,101v0,54,-46,102,-101,102v-54,0,-102,-48,-102,-102xm380,-943r1,943r-167,3r0,-950xm762,-1320v0,-56,46,-103,102,-103v56,0,103,47,103,103v0,56,-47,102,-103,102v-54,0,-102,-48,-102,-102xm950,-943r0,922v2,341,-105,491,-322,467v-67,-8,-140,-37,-217,-105r72,-83v88,75,157,108,209,99v52,-9,83,-31,86,-66v19,-235,7,-588,7,-849r0,-381","w":1131},"\u0134":{"d":"591,-453v1,200,-17,330,-51,389v-34,59,-111,89,-232,90v-121,1,-209,-48,-266,-148r70,-37v56,73,118,109,186,107v68,-2,101,-49,101,-138r0,-1166r192,1r0,902xm393,-1822r184,0r190,331r-31,0r-273,-213r-229,213r-30,0","w":797},"\u0135":{"d":"191,-1385r184,0r190,331r-31,0r-273,-213r-229,213r-30,0xm-157,341v0,-44,38,-85,82,-85v31,0,71,18,114,59v82,77,159,63,172,-62v23,-231,3,-559,6,-811r0,-149v-12,-103,-58,-121,-140,-88r-14,-36r276,-112r43,0r0,922v3,265,-113,463,-360,463v-78,0,-179,-32,-179,-101","w":569},"\u0136":{"d":"586,340v88,20,167,-28,169,-106v1,-57,-44,-81,-106,-72r0,-97v132,-24,246,23,246,144v0,139,-157,208,-309,174r0,-43xm1087,-1355r-667,654r-1,-654r-192,0r-1,1355r194,0r0,-677r831,677r228,0r-867,-752r618,-603r-143,0xm1087,-1355r-667,654"},"\u0137":{"d":"358,340v88,20,167,-28,169,-106v1,-57,-44,-81,-106,-72r0,-97v132,-24,246,23,246,144v0,139,-157,208,-309,174r0,-43xm335,-1422r0,912r428,-405r112,0r-377,355r451,563r-193,0r-421,-513r1,510r-167,0r-1,-1419","w":1024},"\u0138":{"d":"487,-878v-131,4,-152,28,-152,163r0,205r229,-209v62,-57,93,-93,93,-109v0,-31,-24,-47,-71,-50r0,-38r398,0r0,38v-94,1,-179,37,-255,106r-231,212r235,297v67,85,107,134,118,145v65,60,106,85,185,81r0,37r-445,0r0,-37v92,-7,71,-55,25,-114r-281,-359r0,304v3,145,12,162,148,169r0,37r-466,0r0,-37v131,-4,152,-28,152,-164r0,-511v-2,-138,-17,-161,-148,-166r0,-38r466,0r0,38","w":1024,"k":{"\u044e":72,"\u0435":317,"\u042f":242,"\u042d":317,"\u042c":-76,".":246,",":246}},"\u0139":{"d":"428,-241v3,113,5,155,105,155r586,0r-28,86r-855,0r2,-1354r191,-2xm759,-1797r-295,345r-34,0r105,-345r224,0","w":1251,"k":{"\u0443":102,"\u043e":102,"\u0435":98,"\u042f":51,"\u042d":98}},"\u013a":{"d":"379,-1422r0,1422r-166,0r-1,-1421xm515,-1797r-295,345r-34,0r105,-345r224,0","w":569,"k":{"\u0443":154,"\u043e":154,"\u042d":98}},"\u013b":{"d":"472,340v88,20,167,-28,169,-106v1,-57,-44,-81,-106,-72r0,-97v132,-24,246,23,246,144v0,139,-157,208,-309,174r0,-43xm428,-241v3,113,5,155,105,155r586,0r-28,86r-855,0r2,-1354r191,-2","w":1251},"\u013c":{"d":"132,340v88,20,167,-28,169,-106v1,-57,-44,-81,-106,-72r0,-97v132,-24,246,23,246,144v0,139,-157,208,-309,174r0,-43xm379,-1422r0,1422r-166,0r-1,-1421","w":569},"\u013d":{"d":"948,-1387v101,0,169,104,169,209v0,155,-99,266,-298,331r0,-44v111,-32,216,-128,216,-256v0,-85,-63,-12,-109,-12v-71,0,-107,-36,-107,-109v0,-67,62,-119,129,-119xm736,-86v289,9,347,-87,438,-289r33,7r-116,368r-1050,0r0,-37v150,3,195,-29,195,-204r0,-875v6,-178,-43,-205,-195,-203r0,-37r614,0r0,37v-116,-1,-186,23,-211,73v-11,21,-16,72,-16,153r0,852v3,113,5,155,105,155r203,0","w":1251},"\u013e":{"d":"640,-1422v97,-2,174,97,174,197v0,149,-86,256,-259,321r0,-47v68,-41,114,-79,139,-114v18,-25,27,-56,27,-91v0,-41,-13,-61,-38,-61v-18,0,-55,17,-72,17v-56,0,-102,-50,-102,-106v0,-75,66,-115,131,-116xm77,-36v117,-6,135,-41,135,-171r0,-832v0,-143,-9,-224,-29,-239v-31,-23,-63,-13,-106,3r-17,-35r273,-112r45,0r0,1215v8,135,18,173,148,171r0,36r-449,0r0,-36","w":832},"\u013f":{"d":"428,-241v3,113,5,155,105,155r586,0r-28,86r-855,0r2,-1354r191,-2xm715,-708v0,-57,48,-105,105,-105v57,0,105,48,105,105v0,56,-49,105,-105,105v-56,0,-105,-49,-105,-105","w":1251},"\u0140":{"d":"379,-1422r0,1422r-166,0r-1,-1421xm506,-703v0,-57,48,-105,105,-105v57,0,105,48,105,105v0,56,-49,105,-105,105v-56,0,-105,-49,-105,-105","w":704},"\u0141":{"d":"37,-37v154,2,192,-35,192,-206r0,-299r-207,166r0,-92r207,-174r-2,-575v-13,-83,-85,-109,-190,-102r0,-37r602,0r0,37v-106,-6,-197,11,-211,90v-18,102,-4,302,-7,428r227,-187r0,95r-227,192r0,453v-1,99,-2,120,52,149v39,21,192,11,266,11v95,0,160,-5,193,-15v103,-31,182,-122,235,-273r32,8r-113,368r-1049,0r0,-37","w":1251},"\u0142":{"d":"380,-206v-11,144,30,166,146,170r0,36r-462,0r0,-36v69,6,123,-8,141,-56v7,-17,11,-59,11,-125r0,-379r-186,153r0,-84r186,-154r0,-355v0,-97,-2,-159,-9,-186v-18,-67,-63,-69,-133,-41r-10,-36r284,-123r32,0r0,608r171,-141r0,85r-171,142r0,522","w":569},"\u0143":{"d":"241,-1356r100,0r829,1017r1,-1017r87,0r0,1378r-36,0r-894,-1092r0,1070r-88,0xm931,-1797r-295,345r-34,0r105,-345r224,0"},"\u0144":{"d":"638,-943v161,0,237,134,237,345r1,598r-166,0r0,-582v0,-159,-47,-238,-142,-238v-79,0,-158,43,-237,130r-1,690r-164,0r1,-943r164,0r0,194v107,-129,210,-194,307,-194xm709,-1390r-295,345r-34,0r105,-345r224,0","w":1024},"\u0145":{"d":"585,340v88,20,167,-28,169,-106v1,-57,-44,-81,-106,-72r0,-97v132,-24,246,23,246,144v0,139,-157,208,-309,174r0,-43xm241,-1356r100,0r829,1017r1,-1017r87,0r0,1378r-36,0r-894,-1092r0,1070r-88,0"},"\u0146":{"d":"358,340v88,20,167,-28,169,-106v1,-57,-44,-81,-106,-72r0,-97v132,-24,246,23,246,144v0,139,-157,208,-309,174r0,-43xm638,-943v161,0,237,134,237,345r1,598r-166,0r0,-582v0,-159,-47,-238,-142,-238v-79,0,-158,43,-237,130r-1,690r-164,0r1,-943r164,0r0,194v107,-129,210,-194,307,-194","w":1024},"\u0147":{"d":"241,-1356r100,0r829,1017r1,-1017r87,0r0,1378r-36,0r-894,-1092r0,1070r-88,0xm840,-1462r-184,0r-190,-331r31,0r273,212r229,-212r30,0"},"\u0148":{"d":"638,-943v161,0,237,134,237,345r1,598r-166,0r0,-582v0,-159,-47,-238,-142,-238v-79,0,-158,43,-237,130r-1,690r-164,0r1,-943r164,0r0,194v107,-129,210,-194,307,-194xm582,-1054r-184,0r-190,-331r31,0r273,212r229,-212r30,0","w":1024},"\u0149":{"d":"135,-1387v97,-2,177,98,174,197v-4,157,-114,273,-260,321r0,-47v69,-41,116,-79,140,-114v17,-25,26,-56,26,-91v0,-41,-12,-61,-37,-61v-17,0,-54,16,-72,16v-56,0,-102,-49,-102,-105v0,-75,65,-114,131,-116xm853,-943v161,0,237,134,237,345r1,598r-166,0r0,-582v0,-159,-47,-238,-142,-238v-79,0,-158,43,-237,130r-1,690r-164,0r1,-943r164,0r0,194v107,-129,210,-194,307,-194","w":1237},"\u014a":{"d":"232,-1124v5,-171,-35,-215,-194,-210r0,-38r386,0r0,281v61,-96,120,-166,177,-210v73,-57,158,-86,255,-86v330,-2,488,294,488,651v0,315,-74,536,-222,664v-80,69,-158,103,-233,103v-109,0,-215,-88,-215,-195v0,-55,42,-108,97,-108v55,0,95,46,120,137v15,55,42,82,80,82v81,0,132,-85,153,-256v7,-51,10,-163,10,-335v0,-177,-15,-313,-44,-407v-50,-159,-144,-238,-282,-238v-83,0,-160,33,-231,100v-47,45,-98,115,-153,209r0,740v0,54,1,88,4,101v14,80,90,110,191,102r0,37r-581,0r0,-37v153,1,194,-27,194,-203r0,-884","w":1437},"\u014b":{"d":"27,-37v116,2,139,-43,139,-170r1,-494v-11,-107,-57,-128,-140,-94r-15,-36r276,-112r43,0r0,194v107,-129,210,-194,308,-194v157,0,236,115,236,345r0,577v3,267,-112,463,-360,463v-79,0,-179,-33,-179,-101v0,-44,38,-85,82,-85v31,0,71,18,114,59v82,78,150,62,173,-62v3,-23,5,-76,5,-159r0,-676v0,-159,-47,-238,-141,-238v-81,0,-161,43,-238,130r0,483v-3,141,22,168,149,170r0,37r-453,0r0,-37","w":1013},"\u014c":{"d":"72,-683v0,-385,294,-704,677,-704v364,0,651,330,651,701v0,386,-288,717,-667,717v-387,0,-661,-320,-661,-714xm731,-40v309,0,440,-278,440,-619v0,-182,-28,-328,-85,-438v-74,-145,-193,-217,-356,-217v-121,0,-219,45,-292,135v-91,112,-137,276,-137,492v0,222,47,392,142,511v72,91,168,136,288,136xm421,-1636r638,0r0,128r-638,0r0,-128"},"\u014d":{"d":"69,-449v6,-268,173,-487,443,-494v250,-6,448,218,441,468v-8,276,-169,496,-452,503v-248,6,-438,-230,-432,-477xm481,-878v-154,-2,-226,158,-226,345v0,113,20,216,61,309v53,121,129,181,228,181v149,0,223,-118,223,-355v0,-162,-35,-290,-105,-384v-48,-64,-108,-96,-181,-96xm194,-1248r638,0r0,128r-638,0r0,-128","w":1024},"\u014e":{"d":"72,-683v0,-385,294,-704,677,-704v364,0,651,330,651,701v0,386,-288,717,-667,717v-387,0,-661,-320,-661,-714xm731,-40v309,0,440,-278,440,-619v0,-182,-28,-328,-85,-438v-74,-145,-193,-217,-356,-217v-121,0,-219,45,-292,135v-91,112,-137,276,-137,492v0,222,47,392,142,511v72,91,168,136,288,136xm1025,-1770v-8,152,-129,280,-286,280v-158,0,-277,-129,-286,-280r31,0v47,93,130,129,257,129v121,0,219,-37,251,-129r33,0"},"\u014f":{"d":"69,-449v6,-268,173,-487,443,-494v250,-6,448,218,441,468v-8,276,-169,496,-452,503v-248,6,-438,-230,-432,-477xm481,-878v-154,-2,-226,158,-226,345v0,113,20,216,61,309v53,121,129,181,228,181v149,0,223,-118,223,-355v0,-162,-35,-290,-105,-384v-48,-64,-108,-96,-181,-96xm778,-1358v-8,152,-129,280,-286,280v-158,0,-277,-129,-286,-280r31,0v47,93,130,129,257,129v121,0,219,-37,251,-129r33,0","w":1024},"\u0150":{"d":"72,-683v0,-385,294,-704,677,-704v364,0,651,330,651,701v0,386,-288,717,-667,717v-387,0,-661,-320,-661,-714xm731,-40v309,0,440,-278,440,-619v0,-182,-28,-328,-85,-438v-74,-145,-193,-217,-356,-217v-121,0,-219,45,-292,135v-91,112,-137,276,-137,492v0,222,47,392,142,511v72,91,168,136,288,136xm587,-1797r187,0r-220,346r-33,0xm900,-1797r187,0r-218,346r-34,0"},"\u0151":{"d":"69,-449v6,-268,173,-487,443,-494v250,-6,448,218,441,468v-8,276,-169,496,-452,503v-248,6,-438,-230,-432,-477xm481,-878v-154,-2,-226,158,-226,345v0,113,20,216,61,309v53,121,129,181,228,181v149,0,223,-118,223,-355v0,-162,-35,-290,-105,-384v-48,-64,-108,-96,-181,-96xm350,-1390r187,0r-220,346r-33,0xm663,-1390r187,0r-218,346r-34,0","w":1024},"\u0152":{"d":"1170,0v-189,-5,-302,16,-483,16v-260,0,-436,-147,-530,-336v-128,-258,-101,-593,59,-811v115,-156,277,-237,493,-237v9,0,73,2,194,7v87,3,176,5,267,5r473,0r12,298r-32,0v-31,-139,-27,-173,-120,-211v-76,-31,-284,-10,-399,-13r0,535r183,0v141,0,211,-65,210,-196r39,0r0,472r-39,0v-15,-160,-45,-202,-210,-202r-183,0r0,448v0,78,14,125,43,141v61,16,266,12,323,0v132,-29,195,-130,253,-256r40,0r-108,340r-485,0xm912,-1042v9,-187,-39,-262,-199,-262v-178,0,-298,99,-360,296v-32,101,-48,214,-48,340v0,248,59,425,178,530v62,55,137,83,226,83v99,0,161,-32,186,-97v11,-31,17,-93,17,-188r0,-702","w":1821},"\u0153":{"d":"67,-443v0,-268,165,-500,423,-500v137,0,241,53,312,158v73,-106,168,-159,283,-159v208,0,335,158,326,371r-548,0v-10,222,72,436,276,436v114,0,194,-73,239,-218r33,17v-45,244,-159,366,-340,366v-123,0,-213,-54,-269,-161v-83,107,-189,161,-318,161v-251,0,-417,-212,-417,-471xm453,-888v-151,0,-199,164,-199,349v0,172,34,307,102,406v41,60,92,90,153,90v137,0,206,-112,206,-335v0,-125,-15,-230,-45,-317v-44,-129,-116,-193,-217,-193xm1214,-638v2,-121,-55,-239,-175,-239v-112,0,-172,119,-176,239r351,0"},"\u0154":{"d":"1022,0r-459,-634v-34,1,-62,2,-83,2v-18,0,-38,-1,-59,-2r0,634r-191,0r0,-1346v202,-4,463,-28,618,21v130,41,245,158,245,318v0,182,-111,298,-334,347r478,660r-215,0xm868,-994v1,-170,-120,-289,-290,-286v-39,0,-91,6,-157,19r0,564v245,16,445,-78,447,-297xm809,-1797r-295,345r-34,0r105,-345r224,0","w":1366},"\u0155":{"d":"332,-935r0,198v77,-132,153,-198,228,-196v61,2,106,51,136,145r-73,56v-33,-60,-61,-101,-137,-86v-26,5,-46,17,-61,30v-31,28,-62,73,-93,135r-2,649r-162,0r-1,-929xm574,-1390r-295,345r-34,0r105,-345r224,0","w":682},"\u0156":{"d":"540,340v88,20,167,-28,169,-106v1,-57,-44,-81,-106,-72r0,-97v132,-24,246,23,246,144v0,139,-157,208,-309,174r0,-43xm1022,0r-459,-634v-34,1,-62,2,-83,2v-18,0,-38,-1,-59,-2r0,634r-191,0r0,-1346v202,-4,463,-28,618,21v130,41,245,158,245,318v0,182,-111,298,-334,347r478,660r-215,0xm868,-994v1,-170,-120,-289,-290,-286v-39,0,-91,6,-157,19r0,564v245,16,445,-78,447,-297","w":1366},"\u0157":{"d":"146,340v88,20,167,-28,169,-106v1,-57,-44,-81,-106,-72r0,-97v132,-24,246,23,246,144v0,139,-157,208,-309,174r0,-43xm332,-935r0,198v77,-132,153,-198,228,-196v61,2,106,51,136,145r-73,56v-33,-60,-61,-101,-137,-86v-26,5,-46,17,-61,30v-31,28,-62,73,-93,135r-2,649r-162,0r-1,-929","w":682},"\u0158":{"d":"1022,0r-459,-634v-34,1,-62,2,-83,2v-18,0,-38,-1,-59,-2r0,634r-191,0r0,-1346v202,-4,463,-28,618,21v130,41,245,158,245,318v0,182,-111,298,-334,347r478,660r-215,0xm868,-994v1,-170,-120,-289,-290,-286v-39,0,-91,6,-157,19r0,564v245,16,445,-78,447,-297xm698,-1462r-184,0r-190,-331r31,0r273,212r229,-212r30,0","w":1366},"\u0159":{"d":"332,-935r0,198v77,-132,153,-198,228,-196v61,2,106,51,136,145r-73,56v-33,-60,-61,-101,-137,-86v-26,5,-46,17,-61,30v-31,28,-62,73,-93,135r-2,649r-162,0r-1,-929xm447,-1054r-184,0r-190,-331r31,0r273,212r229,-212r30,0","w":682},"\u015a":{"d":"128,-1030v0,-205,188,-363,397,-357v212,6,305,78,366,206v31,64,44,133,48,203r-60,0v-26,-143,-73,-235,-143,-276v-123,-73,-267,-79,-373,3v-84,64,-104,181,-33,265v42,50,140,117,295,200v107,57,176,96,206,117v118,83,194,160,198,323v6,253,-248,419,-534,370v-127,-22,-209,-70,-283,-180v-47,-70,-72,-163,-72,-283r60,0v0,199,60,274,183,344v59,34,126,48,198,48v141,0,270,-85,270,-222v0,-73,-39,-137,-113,-196v-80,-65,-380,-217,-460,-283v-98,-81,-150,-173,-150,-282xm762,-1797r-295,345r-34,0r105,-345r224,0","w":1139},"\u015b":{"d":"125,-591v-89,-177,65,-359,249,-352v190,7,273,107,286,283r-42,0v-22,-160,-101,-226,-244,-230v-114,-3,-221,128,-135,225v110,123,378,179,457,334v95,188,-72,367,-269,367v-134,0,-214,-44,-270,-129v-32,-48,-50,-113,-50,-196r43,0v-3,139,44,190,126,238v118,69,331,29,322,-120v-9,-157,-219,-211,-330,-286v-60,-40,-115,-78,-143,-134xm632,-1390r-295,345r-34,0r105,-345r224,0","w":797},"\u015c":{"d":"128,-1030v0,-205,188,-363,397,-357v212,6,305,78,366,206v31,64,44,133,48,203r-60,0v-26,-143,-73,-235,-143,-276v-123,-73,-267,-79,-373,3v-84,64,-104,181,-33,265v42,50,140,117,295,200v107,57,176,96,206,117v118,83,194,160,198,323v6,253,-248,419,-534,370v-127,-22,-209,-70,-283,-180v-47,-70,-72,-163,-72,-283r60,0v0,199,60,274,183,344v59,34,126,48,198,48v141,0,270,-85,270,-222v0,-73,-39,-137,-113,-196v-80,-65,-380,-217,-460,-283v-98,-81,-150,-173,-150,-282xm478,-1822r184,0r190,331r-31,0r-273,-213r-229,213r-30,0","w":1139},"\u015d":{"d":"125,-591v-89,-177,65,-359,249,-352v190,7,273,107,286,283r-42,0v-22,-160,-101,-226,-244,-230v-114,-3,-221,128,-135,225v110,123,378,179,457,334v95,188,-72,367,-269,367v-134,0,-214,-44,-270,-129v-32,-48,-50,-113,-50,-196r43,0v-3,139,44,190,126,238v118,69,331,29,322,-120v-9,-157,-219,-211,-330,-286v-60,-40,-115,-78,-143,-134xm307,-1385r184,0r190,331r-31,0r-273,-213r-229,213r-30,0","w":797},"\u015e":{"d":"128,-1030v0,-205,188,-363,397,-357v212,6,305,78,366,206v31,64,44,133,48,203r-60,0v-26,-143,-73,-235,-143,-276v-123,-73,-267,-79,-373,3v-84,64,-104,181,-33,265v42,50,140,117,295,200v107,57,176,96,206,117v118,83,194,160,198,323v6,253,-248,419,-534,370v-127,-22,-209,-70,-283,-180v-47,-70,-72,-163,-72,-283r60,0v0,199,60,274,183,344v59,34,126,48,198,48v141,0,270,-85,270,-222v0,-73,-39,-137,-113,-196v-80,-65,-380,-217,-460,-283v-98,-81,-150,-173,-150,-282xm551,234v0,-50,-49,-84,-106,-72r111,-178r60,0r-50,79v83,21,125,70,125,146v0,106,-105,184,-215,181v-25,0,-56,-2,-94,-7r0,-43v90,20,169,-28,169,-106","w":1139},"\u015f":{"d":"125,-591v-89,-177,65,-359,249,-352v190,7,273,107,286,283r-42,0v-22,-160,-101,-226,-244,-230v-114,-3,-221,128,-135,225v110,123,378,179,457,334v95,188,-72,367,-269,367v-134,0,-214,-44,-270,-129v-32,-48,-50,-113,-50,-196r43,0v-3,139,44,190,126,238v118,69,331,29,322,-120v-9,-157,-219,-211,-330,-286v-60,-40,-115,-78,-143,-134xm397,234v0,-50,-49,-84,-106,-72r111,-178r60,0r-50,79v83,21,125,70,125,146v0,106,-105,184,-215,181v-25,0,-56,-2,-94,-7r0,-43v90,20,169,-28,169,-106","w":797},"\u0160":{"d":"128,-1030v0,-205,188,-363,397,-357v212,6,305,78,366,206v31,64,44,133,48,203r-60,0v-26,-143,-73,-235,-143,-276v-123,-73,-267,-79,-373,3v-84,64,-104,181,-33,265v42,50,140,117,295,200v107,57,176,96,206,117v118,83,194,160,198,323v6,253,-248,419,-534,370v-127,-22,-209,-70,-283,-180v-47,-70,-72,-163,-72,-283r60,0v0,199,60,274,183,344v59,34,126,48,198,48v141,0,270,-85,270,-222v0,-73,-39,-137,-113,-196v-80,-65,-380,-217,-460,-283v-98,-81,-150,-173,-150,-282xm657,-1462r-184,0r-190,-331r31,0r273,212r229,-212r30,0","w":1139},"\u0161":{"d":"125,-591v-89,-177,65,-359,249,-352v190,7,273,107,286,283r-42,0v-22,-160,-101,-226,-244,-230v-114,-3,-221,128,-135,225v110,123,378,179,457,334v95,188,-72,367,-269,367v-134,0,-214,-44,-270,-129v-32,-48,-50,-113,-50,-196r43,0v-3,139,44,190,126,238v118,69,331,29,322,-120v-9,-157,-219,-211,-330,-286v-60,-40,-115,-78,-143,-134xm491,-1054r-184,0r-190,-331r31,0r273,212r229,-212r30,0","w":797},"\u0162":{"d":"339,-37v148,2,192,-27,192,-198r0,-1036v-91,2,-239,-7,-298,14v-80,29,-124,102,-133,219r-38,0r16,-318r1107,0r15,318r-38,0v-14,-162,-92,-233,-248,-233r-191,0r0,1036v-5,177,39,198,191,198r0,37r-575,0r0,-37xm615,89v82,0,136,75,133,161v-4,129,-78,215,-238,212r0,-36v91,4,168,-58,173,-143v4,-69,-62,-11,-89,-11v-56,0,-84,-29,-84,-87v0,-64,35,-96,105,-96","w":1251},"\u0163":{"d":"20,-879v127,-57,217,-166,279,-338r31,0r0,301r214,0r0,70r-214,0r0,594v0,101,30,151,91,151v52,0,89,-27,112,-81r39,0v-47,131,-124,197,-231,197v-125,0,-176,-90,-176,-245r0,-616r-145,0r0,-33xm286,89v82,0,136,75,133,161v-4,129,-78,215,-238,212r0,-36v90,4,169,-58,174,-143v4,-68,-62,-11,-89,-11v-57,0,-85,-29,-85,-87v0,-64,35,-96,105,-96","w":569},"\u0164":{"d":"723,-1271r0,1271r-192,0r0,-1267r-453,1r0,-90r1107,0r0,87xm724,-1462r-184,0r-190,-331r31,0r273,212r229,-212r30,0","w":1251},"\u0165":{"d":"683,-1422v97,-2,174,97,174,197v0,149,-86,256,-259,321r0,-47v68,-41,114,-79,139,-114v18,-25,27,-56,27,-91v0,-41,-13,-61,-38,-61v-17,0,-55,17,-72,17v-56,0,-102,-50,-102,-106v0,-75,66,-115,131,-116xm19,-879v127,-57,217,-166,279,-338r31,0r0,301r214,0r0,70r-214,0r0,594v0,101,30,151,91,151v52,0,89,-27,112,-81r39,0v-47,131,-124,197,-231,197v-125,0,-176,-90,-176,-245r0,-616r-145,0r0,-33","w":875},"\u0166":{"d":"365,-1271v-188,-9,-249,76,-268,233r-38,0r16,-318r1107,0r15,318r-38,0v-12,-155,-95,-233,-248,-233r-191,0r0,517r357,0r0,81r-357,0r0,438v-5,161,38,204,191,198r0,37r-575,0r0,-37v151,6,192,-36,192,-198r0,-438r-348,0r0,-81r348,0r0,-517r-163,0","w":1251},"\u0167":{"d":"568,-182v-34,98,-117,197,-231,197v-117,0,-176,-82,-176,-245r0,-271r-145,0r0,-82r145,0r0,-263r-145,0r0,-32v121,-51,214,-164,279,-339r31,0r0,301r214,0r0,70r-214,0r0,263r214,0r0,82r-214,0r0,249v0,101,30,151,91,151v51,0,89,-27,112,-81r39,0","w":569},"\u0168":{"d":"1262,-558v1,278,-42,397,-199,509v-78,56,-187,81,-323,81v-264,0,-431,-95,-500,-284v-21,-59,-32,-170,-32,-334r0,-771r192,1r0,831v0,159,22,273,67,340v58,87,153,131,285,131v171,0,333,-85,382,-207v24,-60,38,-162,38,-306r0,-787r90,0r0,796xm580,-1632v-72,0,-73,42,-93,137r-32,0v4,-205,99,-293,263,-246v17,0,208,126,250,126v48,0,80,-46,95,-139r31,0v4,151,-61,263,-190,263v-53,0,-118,-27,-196,-80v-59,-41,-102,-61,-128,-61"},"\u0169":{"d":"392,28v-176,-1,-234,-146,-234,-357r0,-587r166,0r0,613v0,139,51,208,152,208v66,0,142,-43,227,-130r0,-691r165,0r-1,944r-164,0r0,-194v-60,65,-106,109,-137,132v-56,41,-114,62,-174,62xm318,-1234v-72,0,-73,42,-93,137r-32,0v4,-205,99,-293,263,-246v17,0,208,126,250,126v48,0,80,-46,95,-139r31,0v4,151,-61,263,-190,263v-53,0,-118,-27,-196,-80v-59,-41,-102,-61,-128,-61","w":1024},"\u016a":{"d":"1263,-558v1,278,-42,397,-199,509v-78,56,-187,81,-323,81v-264,0,-431,-95,-500,-284v-21,-59,-32,-170,-32,-334r0,-771r192,1r0,831v0,159,22,273,67,340v58,87,153,131,285,131v171,0,333,-85,382,-207v24,-60,38,-162,38,-306r0,-787r90,0r0,796xm468,-1636r638,0r0,128r-638,0r0,-128"},"\u016b":{"d":"392,28v-176,-1,-234,-146,-234,-357r0,-587r166,0r0,613v0,139,51,208,152,208v66,0,142,-43,227,-130r0,-691r165,0r-1,944r-164,0r0,-194v-60,65,-106,109,-137,132v-56,41,-114,62,-174,62xm191,-1248r638,0r0,128r-638,0r0,-128","w":1024},"\u016c":{"d":"1263,-558v1,278,-42,397,-199,509v-78,56,-187,81,-323,81v-264,0,-431,-95,-500,-284v-21,-59,-32,-170,-32,-334r0,-771r192,1r0,831v0,159,22,273,67,340v58,87,153,131,285,131v171,0,333,-85,382,-207v24,-60,38,-162,38,-306r0,-787r90,0r0,796xm1025,-1770v-8,152,-129,280,-286,280v-158,0,-277,-129,-286,-280r31,0v47,93,130,129,257,129v121,0,219,-37,251,-129r33,0"},"\u016d":{"d":"392,28v-176,-1,-234,-146,-234,-357r0,-587r166,0r0,613v0,139,51,208,152,208v66,0,142,-43,227,-130r0,-691r165,0r-1,944r-164,0r0,-194v-60,65,-106,109,-137,132v-56,41,-114,62,-174,62xm798,-1358v-8,152,-129,280,-286,280v-158,0,-277,-129,-286,-280r31,0v47,93,130,129,257,129v121,0,219,-37,251,-129r33,0","w":1024},"\u016e":{"d":"1262,-558v1,278,-42,397,-199,509v-78,56,-187,81,-323,81v-264,0,-431,-95,-500,-284v-21,-59,-32,-170,-32,-334r0,-771r192,1r0,831v0,159,22,273,67,340v58,87,153,131,285,131v171,0,333,-85,382,-207v24,-60,38,-162,38,-306r0,-787r90,0r0,796xm592,-1623v0,-104,87,-191,191,-191v104,0,192,87,192,191v0,105,-87,192,-192,192v-104,0,-191,-88,-191,-192xm905,-1623v0,-66,-56,-122,-122,-122v-66,0,-122,56,-122,122v0,66,56,122,122,122v66,0,122,-56,122,-122"},"\u016f":{"d":"391,28v-176,-1,-234,-146,-234,-357r0,-587r166,0r0,613v0,139,51,208,152,208v66,0,142,-43,227,-130r0,-691r165,0r-1,944r-164,0r0,-194v-60,65,-106,109,-137,132v-56,41,-114,62,-174,62xm299,-1233v0,-104,87,-191,191,-191v104,0,192,87,192,191v0,105,-87,192,-192,192v-104,0,-191,-88,-191,-192xm612,-1233v0,-66,-56,-122,-122,-122v-66,0,-122,56,-122,122v0,66,56,122,122,122v66,0,122,-56,122,-122","w":1024},"\u0170":{"d":"1262,-558v1,278,-42,397,-199,509v-78,56,-187,81,-323,81v-264,0,-431,-95,-500,-284v-21,-59,-32,-170,-32,-334r0,-771r192,1r0,831v0,159,22,273,67,340v58,87,153,131,285,131v171,0,333,-85,382,-207v24,-60,38,-162,38,-306r0,-787r90,0r0,796xm609,-1797r187,0r-220,346r-33,0xm922,-1797r187,0r-218,346r-34,0"},"\u0171":{"d":"391,28v-176,-1,-234,-146,-234,-357r0,-587r166,0r0,613v0,139,51,208,152,208v66,0,142,-43,227,-130r0,-691r165,0r-1,944r-164,0r0,-194v-60,65,-106,109,-137,132v-56,41,-114,62,-174,62xm314,-1390r187,0r-220,346r-33,0xm627,-1390r187,0r-218,346r-34,0","w":1024},"\u0172":{"d":"1262,-558v1,278,-42,397,-199,509v-78,56,-187,81,-323,81v-264,0,-431,-95,-500,-284v-21,-59,-32,-170,-32,-334r0,-771r192,1r0,831v0,159,22,273,67,340v58,87,153,131,285,131v171,0,333,-85,382,-207v24,-60,38,-162,38,-306r0,-787r90,0r0,796xm920,363v-123,0,-229,-68,-229,-184v0,-79,27,-144,80,-195r52,0v-17,35,-26,68,-26,99v-1,166,182,235,333,172r21,32v-91,51,-168,76,-231,76"},"\u0173":{"d":"391,28v-176,-1,-234,-146,-234,-357r0,-587r166,0r0,613v0,139,51,208,152,208v66,0,142,-43,227,-130r0,-691r165,0r-1,944r-164,0r0,-194v-60,65,-106,109,-137,132v-56,41,-114,62,-174,62xm883,363v-123,0,-229,-68,-229,-184v0,-79,27,-144,80,-195r52,0v-17,35,-26,68,-26,99v-1,166,182,235,333,172r21,32v-91,51,-168,76,-231,76","w":1024},"\u0174":{"d":"1044,-1357r316,1042r358,-1042r91,1r-482,1387r-40,0r-309,-867r-307,867r-36,0r-499,-1387r206,0r351,1042r316,-1042xm875,-1822r184,0r190,331r-31,0r-273,-213r-229,213r-30,0","w":1933},"\u0175":{"d":"101,-916r164,0r246,705r265,-705r33,0r245,681r260,-681r71,0r-359,944r-41,0r-229,-585r-267,585r-37,0xm648,-1385r184,0r190,331r-31,0r-273,-213r-229,213r-30,0"},"\u0176":{"d":"828,-575r0,575r-192,0r0,-556r-523,-799r225,-1r449,692r434,-688r104,0xm648,-1822r184,0r190,331r-31,0r-273,-213r-229,213r-30,0"},"\u0177":{"d":"89,-916r183,0r312,675r275,-675r93,2r-555,1355r-94,0r201,-477xm438,-1385r184,0r190,331r-31,0r-273,-213r-229,213r-30,0","w":1024},"\u0178":{"d":"828,-575r0,575r-192,0r0,-556r-523,-799r225,-1r449,692r434,-688r104,0xm827,-1599v0,-58,51,-109,109,-109v58,0,108,51,108,109v0,58,-50,108,-108,108v-58,0,-109,-50,-109,-108xm475,-1599v0,-58,50,-109,108,-109v60,0,109,49,109,109v0,58,-50,108,-108,108v-58,0,-109,-50,-109,-108"},"\u0179":{"d":"1130,0r-1104,0r0,-37r870,-1238r-727,0r6,-81r1003,0r-891,1274r860,0xm854,-1797r-295,345r-34,0r105,-345r224,0","w":1251},"\u017a":{"d":"856,-67r0,67r-815,0r0,-36r608,-810r-541,1r0,-71r768,0r0,37r-614,812r594,0xm678,-1390r-295,345r-34,0r105,-345r224,0","w":909},"\u017b":{"d":"1130,0r-1104,0r0,-37r870,-1238r-727,0r6,-81r1003,0r-891,1274r860,0xm537,-1600v0,-60,49,-109,109,-109v58,0,109,51,109,109v0,58,-51,109,-109,109v-58,0,-109,-51,-109,-109","w":1251},"\u017c":{"d":"856,-67r0,67r-815,0r0,-36r608,-810r-541,1r0,-71r768,0r0,37r-614,812r594,0xm377,-1228v0,-60,49,-109,109,-109v58,0,109,51,109,109v0,58,-51,109,-109,109v-58,0,-109,-51,-109,-109","w":909},"\u017d":{"d":"1130,0r-1104,0r0,-37r870,-1238r-727,0r6,-81r1003,0r-891,1274r860,0xm734,-1462r-184,0r-190,-331r31,0r273,212r229,-212r30,0","w":1251},"\u017e":{"d":"856,-67r0,67r-815,0r0,-36r608,-810r-541,1r0,-71r768,0r0,37r-614,812r594,0xm563,-1054r-184,0r-190,-331r31,0r273,212r229,-212r30,0","w":909},"\u017f":{"d":"359,-242v-2,150,27,215,168,206r0,36r-505,0r0,-36v142,8,172,-54,172,-206r0,-734v-4,-248,143,-444,382,-444v100,0,251,75,251,168v0,38,-44,84,-82,84v-34,0,-71,-29,-110,-86v-43,-63,-89,-94,-138,-94v-77,0,-123,46,-130,140v-20,279,-3,663,-8,966","w":569},"\u0192":{"d":"868,-1254v2,-30,53,-86,-13,-87v-53,0,-88,36,-104,108v-19,83,-40,203,-64,358r178,0r-17,66r-174,0v-35,183,-93,419,-172,708v-62,226,-130,376,-205,449v-57,55,-114,83,-173,83v-64,1,-122,-40,-122,-105v0,-45,32,-89,77,-89v29,0,67,26,65,56v4,19,-24,46,-24,57v0,14,8,21,25,21v33,0,65,-25,96,-74v19,-30,39,-89,60,-177v7,-27,35,-166,86,-415v5,-25,46,-197,123,-514r-177,0r15,-66v55,-4,85,-6,90,-7v100,-24,96,-66,137,-174v38,-100,66,-173,95,-216v51,-77,115,-115,192,-115v72,0,138,44,137,112v0,51,-23,77,-68,77v-30,1,-64,-26,-63,-56","w":1024},"\u01fa":{"d":"718,-1387r35,0r623,1387r-253,0r-43,-116r-141,-338r-525,0r-196,454r-101,0xm911,-528r-230,-548r-236,548r466,0xm542,-1510v0,-104,87,-191,191,-191v104,0,192,87,192,191v0,105,-87,192,-192,192v-104,0,-191,-88,-191,-192xm855,-1510v0,-66,-56,-122,-122,-122v-66,0,-122,56,-122,122v0,66,56,122,122,122v66,0,122,-56,122,-122xm963,-2062r-295,345r-34,0r105,-345r224,0"},"\u01fb":{"d":"108,-713v0,-145,176,-230,335,-230v153,0,253,44,287,138v35,97,18,344,18,487v0,121,8,187,22,200v14,13,38,12,54,3v13,-8,40,-32,81,-73r0,56v-75,100,-146,150,-214,150v-71,0,-107,-50,-108,-150v-95,73,-154,115,-177,126v-36,17,-74,25,-115,25v-131,2,-218,-104,-218,-236v0,-95,58,-176,173,-244v67,-40,180,-89,337,-146v5,-163,-24,-275,-170,-275v-68,0,-144,47,-138,112v7,82,0,154,-83,154v-56,0,-84,-32,-84,-97xm241,-264v0,84,60,167,142,167v51,0,117,-33,200,-100r0,-349v-99,39,-164,68,-195,85v-98,55,-147,120,-147,197xm267,-1235v0,-104,87,-191,191,-191v104,0,192,87,192,191v0,105,-87,192,-192,192v-104,0,-191,-88,-191,-192xm580,-1235v0,-66,-56,-122,-122,-122v-66,0,-122,56,-122,122v0,66,56,122,122,122v66,0,122,-56,122,-122xm692,-1836r-295,345r-34,0r105,-345r224,0","w":909},"\u01fc":{"d":"638,-37v151,2,197,-24,197,-202r0,-286r-396,0v-53,107,-194,304,-194,406v0,47,52,75,157,82r0,37r-426,0r0,-37v53,-1,101,-29,144,-84v25,-32,57,-83,94,-153r412,-771v51,-96,77,-160,77,-193v0,-48,-58,-75,-173,-81r0,-37r1111,0r15,298r-34,0v-15,-118,-56,-196,-128,-214v-107,-26,-330,-6,-467,-10r0,536r257,0v156,-2,204,-48,217,-197r36,0r0,471r-36,0v-13,-116,-25,-149,-101,-190v-79,-21,-265,-7,-373,-11r0,525v10,60,38,75,115,74r182,0v243,10,323,-107,402,-267r38,0r-108,341r-1018,0r0,-37xm835,-1282r-357,684r357,0r0,-684xm1135,-1836r-295,345r-34,0r105,-345r224,0","w":1821},"\u01fd":{"d":"105,-716v-5,-132,167,-228,335,-228v149,0,239,41,270,123v109,-156,402,-167,516,-12v50,68,78,156,78,266r-570,0v-1,34,-1,59,-1,74v0,247,85,371,256,371v154,0,219,-76,283,-220r32,22v-24,108,-76,198,-155,270v-57,52,-129,78,-215,78v-162,0,-201,-43,-296,-160r-55,43v-87,77,-171,113,-287,117v-124,4,-228,-105,-223,-229v6,-156,85,-207,214,-274v104,-53,196,-94,276,-122r0,-92v0,-131,-49,-197,-147,-197v-70,0,-141,40,-141,105v0,109,-4,155,-80,160v-56,4,-88,-48,-90,-95xm734,-632r378,0v-3,-161,-64,-241,-185,-241v-123,0,-192,112,-193,241xm241,-258v-2,94,66,179,161,179v49,0,118,-35,208,-105v-42,-84,-50,-214,-47,-348v-91,28,-173,71,-248,128v-49,38,-74,87,-74,146xm907,-1390r-295,345r-34,0r105,-345r224,0","w":1366},"\u01fe":{"d":"73,-692v0,-374,297,-695,668,-695v151,0,287,50,406,149r131,-162r58,44r-133,167v283,289,250,801,-46,1057v-239,206,-588,213,-827,20r-129,159r-59,-47r132,-164v-134,-138,-201,-314,-201,-528xm1063,-1135v-94,-160,-283,-223,-474,-159v-192,64,-287,313,-287,597v0,154,24,290,73,408xm416,-217v66,107,167,176,314,176v122,0,221,-43,298,-129v95,-107,142,-269,142,-486v0,-174,-17,-268,-69,-407xm964,-1836r-295,345r-34,0r105,-345r224,0"},"\u01ff":{"d":"74,-455v0,-265,175,-488,447,-488v102,0,197,37,285,111r133,-147r46,43r-135,152v71,90,106,194,106,312v0,272,-169,500,-449,500v-100,0,-195,-38,-286,-114r-135,153r-47,-43r141,-159v-71,-87,-106,-194,-106,-320xm704,-719v-61,-105,-133,-158,-216,-158v-152,0,-228,115,-228,345v0,83,13,170,39,262xm732,-654r-403,450v59,107,132,161,218,161v149,0,224,-120,224,-359v0,-81,-13,-165,-39,-252xm736,-1390r-295,345r-34,0r105,-345r224,0","w":1024},"\u02c6":{"d":"249,-1385r184,0r190,331r-31,0r-273,-213r-229,213r-30,0","w":682},"\u02c7":{"d":"434,-1054r-184,0r-190,-331r31,0r273,212r229,-212r30,0","w":682},"\u02c9":{"d":"23,-1353r638,0r0,128r-638,0r0,-128","w":682},"\u02d8":{"d":"627,-1358v-8,152,-129,280,-286,280v-158,0,-277,-129,-286,-280r31,0v47,93,130,129,257,129v121,0,219,-37,251,-129r33,0","w":682},"\u02d9":{"d":"233,-1228v0,-60,49,-109,109,-109v58,0,109,51,109,109v0,58,-51,109,-109,109v-58,0,-109,-51,-109,-109","w":682},"\u02da":{"d":"150,-1233v0,-104,87,-191,191,-191v104,0,192,87,192,191v0,105,-87,192,-192,192v-104,0,-191,-88,-191,-192xm463,-1233v0,-66,-56,-122,-122,-122v-66,0,-122,56,-122,122v0,66,56,122,122,122v66,0,122,-56,122,-122","w":682},"\u02db":{"d":"377,363v-123,0,-229,-68,-229,-184v0,-79,27,-144,80,-195r52,0v-17,35,-26,68,-26,99v-1,166,182,235,333,172r21,32v-91,51,-168,76,-231,76","w":682},